// Written by Bryson Gibbons for the Department of Energy (PNNL, Richland, WA)
// Copyright 2017, Battelle Memorial Institute
// E-mail: bryson.gibbons@pnnl.gov
// Website: http://ncrr.pnl.gov/software
// -------------------------------------------------------------------------------
//
// Licensed under the Apache License, Version 2.0; you may not use this file except
// in compliance with the License.  You may obtain a copy of the License at
// http://www.apache.org/licenses/LICENSE-2.0

const int bias_count = 6;
const double bias[] = { 1.344962, 0.326402, 15.643831, 2.548588, 12.268744, -1.632550 };

const int support_bias_count = 6;
const double support_bias[] = { 737.000000, 541.000000, 205.000000, 902.000000, 247.000000, 353.000000 };

const int support_weights_count = 2985;
const double support_weights[] = { 1000.000000, 1000.000000, 1000.000000, 1000.000000, 1000.000000, 1000.000000, 1000.000000, 1000.000000, 1000.000000, 1000.000000, 1000.000000, 201.985258, 1000.000000, 454.346465, 148.787939, 1000.000000, 1000.000000, 1000.000000, 1000.000000, 1000.000000,
							1000.000000, 8.878161, 1000.000000, 1000.000000, 1000.000000, 1000.000000, 1000.000000, 1000.000000, 1000.000000, 1000.000000, 1000.000000, 711.749022, 1000.000000, 1000.000000, 1000.000000, 1000.000000, 1000.000000, 1000.000000, 1000.000000, 1000.000000,
							1000.000000, 1000.000000, 177.330963, 1000.000000, 1000.000000, 1000.000000, 1000.000000, 1000.000000, 1000.000000, 1000.000000, 1000.000000, 1000.000000, 1000.000000, 1000.000000, 1000.000000, 1000.000000, 1000.000000, 557.589352, 1000.000000, 1000.000000,
							1000.000000, 1000.000000, 1000.000000, 1000.000000, 1000.000000, 1000.000000, 1000.000000, 262.803313, 1000.000000, 1000.000000, 1000.000000, 1.590550, 1000.000000, 1000.000000, 1000.000000, 1000.000000, 363.114206, 1000.000000, 1000.000000, 866.807574,
							1000.000000, 529.152958, 1000.000000, 1000.000000, 791.430681, 1000.000000, 1000.000000, 1000.000000, 1000.000000, 1000.000000, 1000.000000, 1000.000000, 1000.000000, 1000.000000, 1000.000000, 1000.000000, 1000.000000, 1000.000000, 1000.000000, 1000.000000,
							1000.000000, 1.986584, 1000.000000, 1000.000000, 1000.000000, 1000.000000, 1000.000000, 1000.000000, 1000.000000, 1000.000000, 1000.000000, 859.580781, 1000.000000, 1000.000000, 73.549727, 1000.000000, 1000.000000, 1000.000000, 1000.000000, 1000.000000,
							1000.000000, 1000.000000, 1000.000000, 113.532856, 1000.000000, 1000.000000, 1000.000000, 1000.000000, 1000.000000, 1000.000000, 1000.000000, 1000.000000, 1000.000000, 1000.000000, 668.137616, 1000.000000, 1000.000000, 1000.000000, 1000.000000, 1000.000000,
							290.082223, 1000.000000, 1000.000000, 1000.000000, 1000.000000, 1000.000000, 732.009461, 1000.000000, 1000.000000, 1000.000000, 1000.000000, 1000.000000, 1000.000000, 1000.000000, 1000.000000, 1000.000000, 1000.000000, 1000.000000, 1000.000000, 1000.000000,
							1000.000000, 1000.000000, 1000.000000, 1000.000000, 1000.000000, 1000.000000, 1000.000000, 1000.000000, 1000.000000, 1000.000000, 1000.000000, 1000.000000, 1000.000000, 1000.000000, 1000.000000, 1000.000000, 1000.000000, 1000.000000, 1000.000000, 1000.000000,
							804.410401, 1000.000000, 1000.000000, 1000.000000, 377.201337, 1000.000000, 1000.000000, 1000.000000, 1000.000000, 1000.000000, 1000.000000, 1000.000000, 1000.000000, 1000.000000, 1000.000000, 1000.000000, 1000.000000, 1000.000000, 1000.000000, 1000.000000,
							1000.000000, 1000.000000, 1000.000000, 1000.000000, 1000.000000, 1000.000000, 1000.000000, 1000.000000, 1000.000000, 1000.000000, 1000.000000, 1000.000000, 1000.000000, 1000.000000, 1000.000000, 1000.000000, 1000.000000, 1000.000000, 1000.000000, 1000.000000,
							1000.000000, 49.912696, 1000.000000, 1000.000000, 1000.000000, 1000.000000, 1000.000000, 1000.000000, 1000.000000, 1000.000000, 1000.000000, 1000.000000, 1000.000000, 716.021032, 1000.000000, 1000.000000, 1000.000000, 1000.000000, 1000.000000, 1000.000000,
							1000.000000, 1000.000000, 1000.000000, 1000.000000, 1000.000000, 1000.000000, 1000.000000, 1000.000000, 1000.000000, 1000.000000, 1000.000000, 641.995462, 1000.000000, 1000.000000, 1000.000000, 1000.000000, 1000.000000, 1000.000000, 1000.000000, 1000.000000,
							1000.000000, 1000.000000, 1000.000000, 1000.000000, 930.534960, 1000.000000, 1000.000000, 1000.000000, 1000.000000, 1000.000000, 1000.000000, 1000.000000, 1000.000000, 1000.000000, 1000.000000, 1000.000000, 1000.000000, 375.377445, 1000.000000, 1000.000000,
							1000.000000, 1000.000000, 1000.000000, 1000.000000, 1000.000000, 1000.000000, 878.464035, 1000.000000, 1000.000000, 1000.000000, 1000.000000, 1000.000000, 1000.000000, 1000.000000, 1000.000000, 1000.000000, 1000.000000, 1000.000000, 1000.000000, 1000.000000,
							1000.000000, 1000.000000, 1000.000000, 1000.000000, 1000.000000, 1000.000000, 1000.000000, 1000.000000, 1000.000000, 1000.000000, 1000.000000, 1000.000000, 1000.000000, 1000.000000, 1000.000000, 1000.000000, 1000.000000, 1000.000000, 105.354602, 11.021288,
							1000.000000, 1000.000000, 1000.000000, 1000.000000, 1000.000000, 1000.000000, 1000.000000, 679.031326, 1000.000000, 431.668467, 1000.000000, 1000.000000, 1000.000000, 1000.000000, 1000.000000, 1000.000000, 1000.000000, 1000.000000, 1000.000000, 1000.000000,
							-1000.000000, -1000.000000, -824.189466, -778.626340, -1000.000000, -1000.000000, -1000.000000, -1000.000000, -1000.000000, -1000.000000, -589.705805, -1000.000000, -1000.000000, -1000.000000, -813.652261, -1000.000000, -1000.000000, -1000.000000, -1000.000000, -461.298871,
							-1000.000000, -991.911149, -65.597816, -2.740023, -1000.000000, -302.611068, -690.596908, -1000.000000, -661.184600, -253.080173, -1000.000000, -1000.000000, -965.098952, -1000.000000, -1000.000000, -822.122293, -837.971187, -8.034950, -446.987726, -644.952785,
							-1000.000000, -395.449342, -1000.000000, -1000.000000, -333.197211, -1000.000000, -1000.000000, -1000.000000, -1000.000000, -865.613234, -1000.000000, -1000.000000, -164.751378, -1000.000000, -1000.000000, -40.755490, -1000.000000, -480.315167, -1000.000000, -343.930875,
							-1000.000000, -1000.000000, -173.026550, -1000.000000, -354.958150, -1000.000000, -1000.000000, -10.375132, -1000.000000, -27.176092, -1000.000000, -542.088800, -1000.000000, -1000.000000, -1000.000000, -5.774607, -431.526715, -266.190005, -1000.000000, -260.880549,
							-1000.000000, -1000.000000, -1000.000000, -1000.000000, -1000.000000, -1000.000000, -1000.000000, -152.304132, -1000.000000, -313.512388, -1000.000000, -510.170622, -1000.000000, -1000.000000, -1000.000000, -1000.000000, -1000.000000, -1000.000000, -974.810206, -996.406033,
							-911.845282, -925.065718, -1000.000000, -975.465596, -1000.000000, -1000.000000, -1000.000000, -1000.000000, -1000.000000, -638.369264, -10.800193, -1000.000000, -1000.000000, -1000.000000, -1000.000000, -966.140426, -1000.000000, -1000.000000, -1000.000000, -44.951051,
							-1000.000000, -1000.000000, -761.583984, -1000.000000, -36.427706, -336.904107, -1000.000000, -1000.000000, -1000.000000, -1000.000000, -1000.000000, -219.283466, -1000.000000, -1000.000000, -1000.000000, -1000.000000, -1000.000000, -1000.000000, -500.989464, -236.427880,
							-1000.000000, -1000.000000, -1000.000000, -235.576691, -1000.000000, -610.420646, -1000.000000, -108.490157, -1000.000000, -1000.000000, -1000.000000, -228.721211, -142.650916, -272.413746, -1000.000000, -582.797782, -1000.000000, -1000.000000, -1000.000000, -1000.000000,
							-1000.000000, -1000.000000, -1000.000000, -1000.000000, -1000.000000, -242.407444, -1000.000000, -811.126972, -1000.000000, -292.602114, -855.042645, -1000.000000, -1000.000000, -1000.000000, -1000.000000, -418.063929, -1000.000000, -1000.000000, -1000.000000, -1000.000000,
							-393.067055, -1000.000000, -1000.000000, -1000.000000, -1000.000000, -1000.000000, -619.801056, -1000.000000, -1000.000000, -1000.000000, -1000.000000, -1000.000000, -1000.000000, -550.992558, -1000.000000, -542.714381, -1000.000000, -765.093847, -1000.000000, -1000.000000,
							-1000.000000, -128.670214, -1000.000000, -1000.000000, -1000.000000, -580.932699, -1000.000000, -662.386670, -1000.000000, -1000.000000, -1000.000000, -117.081136, -226.214573, -1000.000000, -1000.000000, -1000.000000, -1000.000000, -683.427912, -107.748750, -1000.000000,
							-298.649738, -29.768113, -963.799397, -207.638574, -1000.000000, -1000.000000, -1000.000000, -1000.000000, -1000.000000, -355.173897, -1000.000000, -1000.000000, -238.464429, -1000.000000, -677.718024, -1000.000000, -1000.000000, -763.494357, -1000.000000, -1000.000000,
							-1000.000000, -1000.000000, -1000.000000, -1000.000000, -1000.000000, -1000.000000, -1000.000000, -1000.000000, -1000.000000, -199.926895, -409.843777, -81.891909, -713.135739, -1000.000000, -1000.000000, -622.127880, -291.626196, -1000.000000, -1000.000000, -436.470230,
							-1000.000000, -1000.000000, -1000.000000, -1000.000000, -346.546985, -1000.000000, -1000.000000, -628.157039, -824.733775, -1000.000000, -1000.000000, -230.127208, -1000.000000, -1000.000000, -1000.000000, -1000.000000, -1000.000000, -200.250314, -1000.000000, -1000.000000,
							-1000.000000, -389.088248, -1000.000000, -938.068126, -1000.000000, -1000.000000, -180.071661, -1000.000000, -33.391888, -724.366527, -1000.000000, -746.991498, -15.267660, -648.433834, -1000.000000, -3.835286, -1000.000000, -389.426941, -1000.000000, -1000.000000,
							-802.062610, -1000.000000, -726.608355, -1000.000000, -1000.000000, -1000.000000, -1000.000000, -1000.000000, -337.085106, -1000.000000, -585.060388, -1000.000000, -1000.000000, -1000.000000, -1000.000000, -1000.000000, -1000.000000, -110.500098, -1000.000000, -1000.000000,
							-19.407870, -1000.000000, -1000.000000, -1000.000000, -322.949133, -58.439014, -689.476141, -1000.000000, -1000.000000, -1000.000000, -401.233465, -1000.000000, -1000.000000, -818.933449, -1000.000000, -788.059292, -600.599517, -1000.000000, -1000.000000, -153.510129,
							-1000.000000, -1000.000000, -1000.000000, -1000.000000, -850.541997, -50.640044, -1000.000000, -1000.000000, -1000.000000, -1000.000000, -1000.000000, -403.313385, -873.431104, -1000.000000, -129.050894, -349.823825, -1000.000000, -1000.000000, -390.661028, -1000.000000,
							-1000.000000, -1000.000000, -1000.000000, -1000.000000, -1000.000000, -1000.000000, -213.833964, -1000.000000, -1000.000000, -1000.000000, -1000.000000, -596.145830, -1000.000000, -1000.000000, -1000.000000, -559.716023, -456.343389, -1000.000000, -1000.000000, -313.638789,
							-1000.000000, -1000.000000, -1000.000000, -1000.000000, -662.198029, -1000.000000, -1000.000000, -758.740545, -1000.000000, -1000.000000, -632.773472, -627.802284, -1000.000000, -1000.000000, -1000.000000, -398.099138, -1000.000000, 1000.000000, 1000.000000, 1000.000000,
							1000.000000, 1000.000000, 1000.000000, 1000.000000, 864.377120, 1000.000000, 1000.000000, 1000.000000, 1000.000000, 1000.000000, 1000.000000, 218.476938, 667.963877, 1000.000000, 1000.000000, 801.152474, 1000.000000, 1000.000000, 1000.000000, 1000.000000,
							1000.000000, 1000.000000, 738.650099, 1000.000000, 1000.000000, 1000.000000, 1000.000000, 1000.000000, 1000.000000, 1000.000000, 1000.000000, 0.710707, 1000.000000, 1000.000000, 1000.000000, 1000.000000, 1000.000000, 1000.000000, 1000.000000, 1000.000000,
							1000.000000, 1000.000000, 1000.000000, 1000.000000, 1000.000000, 1000.000000, 1000.000000, 1000.000000, 1000.000000, 1000.000000, 1000.000000, 1000.000000, 1000.000000, 768.423543, 1000.000000, 1000.000000, 145.155987, 1000.000000, 1000.000000, 1000.000000,
							1000.000000, 1000.000000, 1000.000000, 1000.000000, 1000.000000, 1000.000000, 1000.000000, 1000.000000, 1000.000000, 1000.000000, 1000.000000, 1000.000000, 1000.000000, 1000.000000, 962.751094, 1000.000000, 1000.000000, 1000.000000, 1000.000000, 1000.000000,
							1000.000000, 239.828444, 1000.000000, 1000.000000, 1000.000000, 700.917519, 82.522955, 792.991660, 1000.000000, 1000.000000, 322.417028, 1000.000000, 1000.000000, 1000.000000, 1000.000000, 1000.000000, 1000.000000, 1000.000000, 1000.000000, 1000.000000,
							1000.000000, 1000.000000, 1000.000000, 1000.000000, 1000.000000, 790.912018, 1000.000000, 1000.000000, 1000.000000, 1000.000000, 1000.000000, 323.067703, 1000.000000, 1000.000000, 1000.000000, 1000.000000, 1000.000000, 1000.000000, 210.297886, 1000.000000,
							1000.000000, 1000.000000, 1000.000000, 923.137639, 1000.000000, 282.794677, 1000.000000, 1000.000000, 1000.000000, 1000.000000, 1000.000000, 1000.000000, 1000.000000, 1000.000000, 1000.000000, 1000.000000, 1000.000000, 1000.000000, 1000.000000, 1000.000000,
							1000.000000, 1000.000000, 1000.000000, 1000.000000, 1000.000000, 1000.000000, 1000.000000, 1000.000000, 1000.000000, 893.019172, 1000.000000, 1000.000000, 1000.000000, 1000.000000, 1000.000000, 1000.000000, 1000.000000, 1000.000000, 1000.000000, 418.633094,
							1000.000000, 562.236479, 1000.000000, 564.556187, 1000.000000, 78.489876, 747.363298, 1000.000000, 985.030866, 1000.000000, 1000.000000, 1000.000000, 114.027059, 1000.000000, 1000.000000, 1000.000000, 1000.000000, 1000.000000, 1000.000000, 1000.000000,
							1000.000000, 49.957889, 618.256143, 1000.000000, 1000.000000, 1000.000000, 1000.000000, 1000.000000, 1000.000000, 1000.000000, 1000.000000, 1000.000000, 1000.000000, 1000.000000, 1000.000000, 1000.000000, 1000.000000, 265.887668, 1000.000000, 1000.000000,
							1000.000000, 186.085117, 1000.000000, 1000.000000, 1000.000000, 1000.000000, 1000.000000, 1000.000000, 134.424743, 1000.000000, 1000.000000, 1000.000000, 193.327625, 1000.000000, 1000.000000, 1000.000000, 1000.000000, 1000.000000, 1000.000000, 1000.000000,
							1000.000000, 1000.000000, 1000.000000, 1000.000000, 1000.000000, 1000.000000, 1000.000000, 1000.000000, 262.539163, 1000.000000, 1000.000000, 1000.000000, 1000.000000, 1000.000000, 1000.000000, 1000.000000, 1000.000000, 1000.000000, 540.981413, 1000.000000,
							1000.000000, 383.447525, 1000.000000, 1000.000000, 1000.000000, 1000.000000, 75.824962, 483.301047, 1000.000000, 1000.000000, 1000.000000, 1000.000000, -1000.000000, -1000.000000, -1000.000000, -1000.000000, -1000.000000, -1000.000000, -2.697884, -39.416374,
							-321.154315, -105.289507, -1000.000000, -691.577280, -1000.000000, -1000.000000, -354.140738, -1000.000000, -317.742556, -1000.000000, -1000.000000, -1000.000000, -1000.000000, -1000.000000, -1000.000000, -1000.000000, -1000.000000, -151.006262, -1000.000000, -1000.000000,
							-1000.000000, -1000.000000, -1000.000000, -9.560778, -1000.000000, -1000.000000, -1000.000000, -947.963425, -1000.000000, -1000.000000, -476.033130, -1000.000000, -1000.000000, -1000.000000, -1000.000000, -1000.000000, -1000.000000, -1000.000000, -1000.000000, -1000.000000,
							-1000.000000, -1000.000000, -46.724052, -1000.000000, -1000.000000, -1000.000000, -1000.000000, -1000.000000, -1000.000000, -1000.000000, -871.809756, -790.302994, -638.365195, -1000.000000, -1000.000000, -1000.000000, -1000.000000, -370.148239, -1000.000000, -1000.000000,
							-423.159914, -1000.000000, -1000.000000, -1000.000000, -1000.000000, -454.170904, -1000.000000, -871.917062, -1000.000000, -331.770591, -1000.000000, -145.167327, -622.540257, -1000.000000, -1000.000000, -89.118651, -1000.000000, -1000.000000, -1000.000000, -1000.000000,
							-888.481366, -1000.000000, -262.667694, -1000.000000, -1000.000000, -118.000823, -1000.000000, -1000.000000, -1000.000000, -1000.000000, -1000.000000, -1000.000000, -972.276262, -1000.000000, -438.791611, -291.888925, -1000.000000, -1000.000000, -1000.000000, -1000.000000,
							-1000.000000, -1000.000000, -1000.000000, -1000.000000, -1000.000000, -1000.000000, -1000.000000, -279.252724, -1000.000000, -1000.000000, -1000.000000, -291.269228, -1000.000000, -1000.000000, -1000.000000, -1000.000000, -1000.000000, -1000.000000, -1000.000000, -751.400984,
							-1000.000000, -786.195727, -1000.000000, -1000.000000, -137.123726, -1000.000000, -1000.000000, -1000.000000, -946.043999, -1000.000000, -1000.000000, -29.079141, -0.636736, -47.390838, -129.928592, -175.280325, -1000.000000, -553.567457, -1000.000000, -312.904411,
							-1000.000000, -1000.000000, -428.087887, -281.820715, -653.761399, -491.196754, -655.366361, -1000.000000, -1000.000000, -1000.000000, -26.262998, -1000.000000, -1000.000000, -1000.000000, -1000.000000, -510.377576, -1000.000000, -1000.000000, -1000.000000, -1000.000000,
							-1000.000000, -561.633211, -72.976505, -1000.000000, -1000.000000, -1000.000000, -1000.000000, -1000.000000, -86.863969, -1000.000000, -1000.000000, -891.177163, -48.612955, -1000.000000, -1000.000000, -1000.000000, -1000.000000, -922.969834, -1000.000000, -1000.000000,
							-1000.000000, -1000.000000, -158.213806, -763.296537, -577.788497, -1000.000000, -1000.000000, -1000.000000, -546.467212, -311.824107, -1000.000000, -1000.000000, -1000.000000, -1000.000000, -198.947459, -1000.000000, -1000.000000, -1000.000000, -1000.000000, -1000.000000,
							-1000.000000, -714.182902, -923.773101, -1000.000000, -1000.000000, -470.199175, -1000.000000, -230.030644, -1000.000000, -1000.000000, -1000.000000, -1000.000000, -1000.000000, -1000.000000, -966.146004, -785.106095, -1000.000000, -927.827227, -330.521062, -1000.000000,
							-1000.000000, -34.440667, -1000.000000, -330.134074, -1000.000000, -1000.000000, -1000.000000, -1000.000000, -602.648736, -1000.000000, -462.146310, -898.963101, -1000.000000, -180.547340, -1000.000000, -1000.000000, -590.122326, -658.481588, -1000.000000, -968.531500,
							-1000.000000, -570.557375, -1000.000000, -1000.000000, -1000.000000, -1000.000000, -1000.000000, -1000.000000, -562.648340, -1000.000000, -1000.000000, -56.099352, -1000.000000, -1000.000000, -189.928664, -1000.000000, -198.802865, -332.783014, -1000.000000, -1000.000000,
							-294.868822, -1000.000000, -1000.000000, -67.725199, -1000.000000, -1000.000000, -269.217683, -1000.000000, -1000.000000, -72.630884, -1000.000000, -1000.000000, -1000.000000, -1000.000000, -793.588632, -400.142248, -1000.000000, -839.541051, 159.410042, 1000.000000,
							536.613256, 1000.000000, 1000.000000, 1000.000000, 1000.000000, 1000.000000, 1000.000000, 1000.000000, 1000.000000, 1000.000000, 1000.000000, 1000.000000, 1000.000000, 1000.000000, 288.287427, 1000.000000, 1000.000000, 793.726803, 1000.000000, 1000.000000,
							1000.000000, 1000.000000, 1000.000000, 1000.000000, 1000.000000, 1000.000000, 795.275234, 1000.000000, 1000.000000, 1000.000000, 1000.000000, 332.168174, 1000.000000, 1000.000000, 836.210805, 1000.000000, 52.262536, 1000.000000, 1000.000000, 525.790777,
							840.449269, 399.288793, 446.942136, 1000.000000, 760.397904, 1000.000000, 1000.000000, 1000.000000, 397.966683, 1000.000000, 229.553058, 1000.000000, 469.508466, 1000.000000, 1000.000000, 259.348420, 16.148984, 302.372011, 1000.000000, 452.120526,
							1000.000000, 1000.000000, 1000.000000, 1000.000000, 1000.000000, 224.883238, 1000.000000, 361.381287, 1000.000000, 1000.000000, 1000.000000, 660.858048, 1000.000000, 1000.000000, 1000.000000, 46.115655, 1000.000000, 136.009645, 1000.000000, 1000.000000,
							1000.000000, 1000.000000, 146.304523, 1000.000000, 8.342647, 426.319010, 1000.000000, 13.418311, 1000.000000, 1000.000000, 1000.000000, 1000.000000, 1000.000000, 1000.000000, 1000.000000, 513.088322, 264.284842, 918.986614, 224.633016, 1000.000000,
							1000.000000, 1000.000000, -1000.000000, -1000.000000, -49.835557, -1000.000000, -1000.000000, -1000.000000, -249.260839, -141.569674, -72.855753, -1000.000000, -906.243911, -1000.000000, -1000.000000, -1000.000000, -115.349786, -1000.000000, -1000.000000, -1000.000000,
							-38.193099, -427.043542, -1000.000000, -1000.000000, -1000.000000, -1000.000000, -1000.000000, -1000.000000, -1000.000000, -90.236121, -502.953169, -1000.000000, -1000.000000, -1000.000000, -1000.000000, -1000.000000, -1000.000000, -1000.000000, -88.637241, -132.601144,
							-1000.000000, -528.549894, -1000.000000, -968.037820, -1000.000000, -497.355895, -1000.000000, -1000.000000, -27.022017, -114.961406, -1000.000000, -519.438354, -634.863294, -1000.000000, -1000.000000, -1000.000000, -991.211038, -2.211235, -306.472060, -1000.000000,
							-1000.000000, -1000.000000, -647.002486, -1000.000000, -1000.000000, -1000.000000, -1000.000000, -1000.000000, -1000.000000, -1000.000000, -1000.000000, -1000.000000, -280.821989, -1000.000000, -1000.000000, -1000.000000, -1000.000000, -1000.000000, -1000.000000, -1000.000000,
							-1000.000000, -1000.000000, -1000.000000, -1000.000000, -1000.000000, -1000.000000, -1000.000000, -1000.000000, -1000.000000, -1000.000000, -1000.000000, -1000.000000, -178.563318, -1000.000000, -1000.000000, -1000.000000, -988.883849, -1000.000000, -1000.000000, -1000.000000,
							-1000.000000, -1000.000000, -338.291974, 1000.000000, 1000.000000, 1000.000000, 1000.000000, 1000.000000, 1000.000000, 1000.000000, 1000.000000, 1000.000000, 1000.000000, 1000.000000, 1000.000000, 877.802491, 1000.000000, 934.073071, 1000.000000, 1000.000000,
							1000.000000, 420.392785, 39.601379, 1000.000000, 1000.000000, 1000.000000, 1000.000000, 1000.000000, 1000.000000, 1000.000000, 1000.000000, 1000.000000, 1000.000000, 1000.000000, 1000.000000, 47.548503, 1000.000000, 1000.000000, 1000.000000, 1000.000000,
							1000.000000, 1000.000000, 1000.000000, 1000.000000, 1000.000000, 1000.000000, 1000.000000, 138.227317, 42.086201, 1000.000000, 1000.000000, 1000.000000, 1000.000000, 1000.000000, 362.415756, 1000.000000, 135.286129, 1000.000000, 1000.000000, 1000.000000,
							1000.000000, 348.915820, 612.404549, 1000.000000, 1000.000000, 1000.000000, 270.907635, 1000.000000, 1000.000000, 1000.000000, 1000.000000, 1000.000000, 1000.000000, 1000.000000, 1000.000000, 1000.000000, 1000.000000, 1000.000000, 1000.000000, 1000.000000,
							1000.000000, 1000.000000, 1000.000000, 1000.000000, 1000.000000, 1000.000000, 1000.000000, 1000.000000, 892.081431, 658.807528, 1000.000000, 1000.000000, 125.628230, 1000.000000, 1000.000000, 1000.000000, 1000.000000, 1000.000000, 1000.000000, 1000.000000,
							1000.000000, 1000.000000, 1000.000000, 1000.000000, 681.005121, 1000.000000, 1000.000000, 1000.000000, 1000.000000, 1000.000000, 1000.000000, 1000.000000, 554.254366, 1000.000000, 1000.000000, 819.516522, 1000.000000, 1000.000000, 1000.000000, 1000.000000,
							1000.000000, 1000.000000, 1000.000000, 1000.000000, 1000.000000, 1000.000000, 1000.000000, 1000.000000, 1000.000000, 1000.000000, 176.022327, 1000.000000, 1000.000000, 1000.000000, 1000.000000, 1000.000000, 1000.000000, 1000.000000, 1000.000000, 1000.000000,
							1000.000000, 1000.000000, 1000.000000, 1000.000000, 1000.000000, 1000.000000, 1000.000000, 339.360790, 1000.000000, 1000.000000, 625.179638, 1000.000000, 1000.000000, 1000.000000, 1000.000000, 1000.000000, 250.330876, 434.502584, 1000.000000, 1000.000000,
							1000.000000, 1000.000000, 429.439467, 1000.000000, 1000.000000, 1000.000000, 18.481627, 1000.000000, 605.633527, 1000.000000, 1000.000000, 1000.000000, 1000.000000, 1000.000000, 1000.000000, 1000.000000, 1000.000000, 1000.000000, 1000.000000, 1000.000000,
							1000.000000, 1000.000000, 1000.000000, 1000.000000, 1000.000000, 1000.000000, 1000.000000, 1000.000000, 487.357618, 1000.000000, 1000.000000, 1000.000000, 1000.000000, 1000.000000, 1000.000000, 1000.000000, 1000.000000, 1000.000000, 1000.000000, 901.347732,
							1000.000000, 1000.000000, 1000.000000, 1000.000000, 1000.000000, 1000.000000, 1000.000000, 1000.000000, 1000.000000, 1000.000000, 1000.000000, 1000.000000, 1000.000000, 1000.000000, 1000.000000, 1000.000000, 1000.000000, 1000.000000, 0.538579, 1000.000000,
							1000.000000, 1000.000000, 1000.000000, 1000.000000, 1000.000000, 1000.000000, 1000.000000, 1000.000000, 569.675994, 1000.000000, 1000.000000, 1000.000000, 109.518490, 1000.000000, 1000.000000, 1000.000000, 1000.000000, 1000.000000, 230.292109, 1000.000000,
							1000.000000, 1000.000000, 1000.000000, 1000.000000, 1000.000000, 1000.000000, 1000.000000, 1000.000000, 1000.000000, 1000.000000, 1000.000000, 1000.000000, 1000.000000, 1000.000000, 1000.000000, 1000.000000, 1000.000000, 1000.000000, 1000.000000, 1000.000000,
							1000.000000, 593.106678, 1000.000000, 1000.000000, 1000.000000, 1000.000000, 204.634633, 1000.000000, 1000.000000, 1000.000000, 1000.000000, 1000.000000, 1000.000000, 1000.000000, 1000.000000, 825.837002, 1000.000000, 1000.000000, 241.310177, 1000.000000,
							1000.000000, 1000.000000, 1000.000000, 1000.000000, 1000.000000, 1000.000000, 658.871030, 1000.000000, 1000.000000, 1000.000000, 1000.000000, 806.283636, 1000.000000, 1000.000000, 1000.000000, 1000.000000, 1000.000000, 1000.000000, 57.531370, 514.159805,
							283.486584, 1000.000000, 679.937204, 233.755381, 1000.000000, 1000.000000, 1000.000000, 1000.000000, 1000.000000, 1000.000000, 1000.000000, 585.052732, 81.219723, 1000.000000, 1000.000000, 1000.000000, 1000.000000, 1000.000000, 1000.000000, 9.528932,
							1000.000000, 628.942538, 1000.000000, 1000.000000, 1000.000000, 1000.000000, 460.231536, 1000.000000, 1000.000000, 1000.000000, 1000.000000, 1000.000000, 1000.000000, 1000.000000, 1000.000000, 1000.000000, 1000.000000, 1000.000000, 1000.000000, 2.875227,
							1000.000000, 1000.000000, 1000.000000, 1000.000000, 1000.000000, 1000.000000, 1000.000000, 1000.000000, 1000.000000, 389.989134, 1000.000000, 1000.000000, 1000.000000, 1000.000000, 1000.000000, 414.329049, 1000.000000, 1000.000000, 681.882457, 1000.000000,
							1000.000000, 1000.000000, 1000.000000, 1000.000000, 1000.000000, 1000.000000, 1000.000000, 1000.000000, 1000.000000, 1000.000000, 1000.000000, 1000.000000, 387.564024, 304.258951, 1000.000000, 1000.000000, 1000.000000, 1000.000000, 962.438184, 1000.000000,
							1000.000000, 1000.000000, 1000.000000, 1000.000000, 1000.000000, 1000.000000, 1000.000000, 1000.000000, 1000.000000, 1000.000000, 1000.000000, 1000.000000, 1000.000000, 819.226680, 1000.000000, 1000.000000, 1000.000000, 1000.000000, 1000.000000, 1000.000000,
							1000.000000, 1000.000000, 1000.000000, 147.127182, 40.682744, 1000.000000, 1000.000000, 1000.000000, 1000.000000, 1000.000000, 1000.000000, 1000.000000, 1000.000000, 1000.000000, 1000.000000, 1000.000000, 1000.000000, 1000.000000, 1000.000000, 1000.000000,
							1000.000000, 198.640127, 1000.000000, 1000.000000, 1000.000000, 1000.000000, 1000.000000, 1000.000000, 387.598474, 1000.000000, 1000.000000, 129.874653, 1000.000000, 1000.000000, 940.917116, 1000.000000, 450.295396, 1000.000000, 1000.000000, 266.908869,
							1000.000000, 1000.000000, 1000.000000, 1000.000000, 245.268491, 1000.000000, 1000.000000, 1000.000000, 1000.000000, 1000.000000, 1000.000000, 1000.000000, 1000.000000, 1000.000000, 1000.000000, 273.206254, 1000.000000, 1000.000000, 1000.000000, -666.850826,
							-825.292171, -1000.000000, -1000.000000, -1000.000000, -1000.000000, -17.044325, -1000.000000, -1000.000000, -1000.000000, -1000.000000, -1000.000000, -1000.000000, -1000.000000, -1000.000000, -1000.000000, -1000.000000, -804.538312, -1000.000000, -1000.000000, -416.461470,
							-1000.000000, -1000.000000, -727.221359, -1000.000000, -1000.000000, -1000.000000, -1000.000000, -1000.000000, -1000.000000, -1000.000000, -214.868995, -1000.000000, -1000.000000, -414.838614, -399.512043, -1000.000000, -77.272537, -1000.000000, -1000.000000, -1000.000000,
							-1000.000000, -1000.000000, -1000.000000, -1000.000000, -1000.000000, -1000.000000, -326.376697, -1000.000000, -1000.000000, -1000.000000, -1000.000000, -366.766813, -1000.000000, -1000.000000, -1000.000000, -1000.000000, -1000.000000, -176.941675, -1000.000000, -1000.000000,
							-1000.000000, -1000.000000, -1000.000000, -1000.000000, -1000.000000, -1000.000000, -934.056766, -1000.000000, -1000.000000, -1000.000000, -1000.000000, -1000.000000, -1000.000000, -1000.000000, -1000.000000, -1000.000000, -1000.000000, -1000.000000, -1000.000000, -1000.000000,
							-1000.000000, -1000.000000, -1000.000000, -1000.000000, -1000.000000, -1000.000000, -1000.000000, -1000.000000, -1000.000000, -1000.000000, -1000.000000, -1000.000000, -1000.000000, -1000.000000, -1000.000000, -1000.000000, -1000.000000, -1000.000000, -1000.000000, -1000.000000,
							-1000.000000, -1000.000000, -1000.000000, -1000.000000, -1000.000000, -1000.000000, -1000.000000, -1000.000000, -1000.000000, -1000.000000, -1000.000000, -1000.000000, -1000.000000, -1000.000000, -1000.000000, -1000.000000, -1000.000000, -29.535530, -1000.000000, -1000.000000,
							-1000.000000, -1000.000000, -1000.000000, -15.607205, -1000.000000, -1000.000000, -1000.000000, -1000.000000, -1000.000000, -1000.000000, -1000.000000, -1000.000000, -1000.000000, -1000.000000, -1000.000000, -396.371739, -470.464494, -1000.000000, -1000.000000, -1000.000000,
							-1000.000000, -1000.000000, -1000.000000, -1000.000000, -694.750451, -1000.000000, -1000.000000, -1000.000000, -1000.000000, -1000.000000, -1000.000000, -1000.000000, -1000.000000, -1000.000000, -1000.000000, -1000.000000, -1000.000000, -1000.000000, -1000.000000, -1000.000000,
							-1000.000000, -11.600811, -1000.000000, -1000.000000, -1000.000000, -1000.000000, -1000.000000, -1000.000000, -1000.000000, -1000.000000, -1000.000000, -1000.000000, -1000.000000, -1000.000000, -1000.000000, -1000.000000, -1000.000000, -1000.000000, -1000.000000, -1000.000000,
							-1000.000000, -1000.000000, -641.850855, -559.488434, -1000.000000, -1000.000000, -1000.000000, -1000.000000, -1000.000000, -1000.000000, -1000.000000, -581.191625, -1000.000000, -1000.000000, -1000.000000, -1000.000000, -978.107120, -1000.000000, -1000.000000, -2.230676,
							-1000.000000, -1000.000000, -1000.000000, -307.155646, -1000.000000, -1000.000000, -1000.000000, -1000.000000, -1000.000000, -1000.000000, -1000.000000, -1000.000000, -1000.000000, -1000.000000, -1000.000000, -1000.000000, -1000.000000, -132.049086, -1000.000000, -1000.000000,
							-1000.000000, -1000.000000, -1000.000000, -1000.000000, -1000.000000, -1000.000000, -1000.000000, -1000.000000, -1000.000000, -1000.000000, -1000.000000, -1000.000000, -1000.000000, -1000.000000, -1000.000000, -1000.000000, -209.528272, -943.013339, -1000.000000, -85.143949,
							-1000.000000, -1000.000000, -129.320946, -1000.000000, -1000.000000, -1000.000000, -1000.000000, -1000.000000, -1000.000000, -1000.000000, -1000.000000, -1000.000000, -1000.000000, -1000.000000, -1000.000000, -1000.000000, -1000.000000, -1000.000000, -1000.000000, -1000.000000,
							-1000.000000, -957.959760, -1000.000000, -1000.000000, -1000.000000, -1000.000000, -1000.000000, -1000.000000, -1000.000000, -1000.000000, -1000.000000, -1000.000000, -1000.000000, -1000.000000, -1000.000000, -1000.000000, -1000.000000, -1000.000000, -1000.000000, -184.903524,
							-1000.000000, -1000.000000, -1000.000000, -1000.000000, -1000.000000, -1000.000000, -903.602340, -1000.000000, -1000.000000, -403.803824, -1000.000000, -1000.000000, -1000.000000, -1000.000000, -1000.000000, -1000.000000, -1000.000000, -1000.000000, -1000.000000, -905.889427,
							-1000.000000, -1000.000000, -1000.000000, -1000.000000, -1000.000000, -1000.000000, -832.204065, -381.643880, -1000.000000, -1000.000000, -1000.000000, -1000.000000, -1000.000000, -1000.000000, -1000.000000, -1000.000000, -1000.000000, -1000.000000, -1000.000000, -1000.000000,
							-1000.000000, -1000.000000, -944.559346, -1000.000000, -1000.000000, -1000.000000, -44.535053, -1000.000000, -1000.000000, -1000.000000, -1000.000000, -1000.000000, -1000.000000, -1000.000000, -1000.000000, -1000.000000, -1000.000000, -1000.000000, -1000.000000, -1000.000000,
							-1000.000000, -244.138499, -1000.000000, -1000.000000, -1000.000000, -1000.000000, -168.928869, -1000.000000, -1000.000000, -1000.000000, -1000.000000, -1000.000000, -1000.000000, -1000.000000, -1000.000000, -1000.000000, -1000.000000, -1000.000000, -1000.000000, -1000.000000,
							-921.893678, -1000.000000, -1000.000000, -1000.000000, -1000.000000, -1000.000000, -1000.000000, -1000.000000, -1000.000000, -1000.000000, -1000.000000, -1000.000000, -1000.000000, -1000.000000, -1000.000000, -1000.000000, -1000.000000, -1000.000000, -1000.000000, -141.685615,
							-1000.000000, -1000.000000, -1000.000000, -1000.000000, -1000.000000, -1000.000000, -1000.000000, -1000.000000, -1000.000000, -1000.000000, -1000.000000, -1000.000000, -1000.000000, -1000.000000, -499.740958, -1000.000000, -607.922092, -644.748731, -1000.000000, -1000.000000,
							-1000.000000, -1000.000000, -1000.000000, -1000.000000, -1000.000000, -1000.000000, -681.114988, -1000.000000, -1000.000000, -1000.000000, -1000.000000, -1000.000000, -1000.000000, -1000.000000, -1000.000000, -1000.000000, -937.968963, -1000.000000, -1000.000000, -63.125656,
							-635.956910, -1000.000000, -1000.000000, -88.250242, -295.578969, -1000.000000, -1000.000000, -1000.000000, -1000.000000, -1000.000000, -1000.000000, -1000.000000, -1000.000000, -1000.000000, -1000.000000, -1000.000000, -1000.000000, -1000.000000, -1000.000000, -1000.000000,
							-1000.000000, -1000.000000, -1000.000000, -1000.000000, -1000.000000, 666.082492, 1000.000000, 1000.000000, 1000.000000, 1000.000000, 804.962222, 37.072532, 1000.000000, 918.600618, 1000.000000, 1000.000000, 155.714550, 962.193366, 1000.000000, 1000.000000,
							484.854128, 405.934547, 1000.000000, 1000.000000, 1000.000000, 1000.000000, 1000.000000, 1000.000000, 1000.000000, 297.868435, 939.941641, 1000.000000, 1000.000000, 1000.000000, 1000.000000, 1000.000000, 86.102072, 94.769563, 252.613881, 259.577062,
							1000.000000, 64.547838, 1000.000000, 1000.000000, 1000.000000, 1000.000000, 365.964763, 1000.000000, 1000.000000, 1000.000000, 838.624700, 1000.000000, 1000.000000, 1000.000000, 1000.000000, 1000.000000, 1000.000000, 730.086190, 1000.000000, 1000.000000,
							228.587891, 564.505023, 1000.000000, 1000.000000, 727.057788, 321.586841, 707.354164, 1000.000000, 712.760663, 1000.000000, 188.119537, 336.518290, 1000.000000, 1000.000000, 77.809141, 1000.000000, 607.371840, 1000.000000, 261.825654, 1000.000000,
							1000.000000, 1000.000000, 1000.000000, 1000.000000, 1000.000000, 838.248872, 673.295685, 553.151382, 1000.000000, 1000.000000, 668.206323, 1000.000000, 1000.000000, 1000.000000, 1000.000000, 1000.000000, 1000.000000, 348.026462, 1000.000000, 1000.000000,
							1000.000000, 1000.000000, 1000.000000, 1000.000000, 1000.000000, 1000.000000, 1000.000000, 1000.000000, 469.585168, 1000.000000, 1000.000000, 225.807237, 1000.000000, 1000.000000, 1000.000000, 1000.000000, 11.830013, 717.760132, 825.456875, 1000.000000,
							1000.000000, 1000.000000, 696.543137, 1000.000000, 1000.000000, 99.439991, 629.308548, 1000.000000, 37.681229, 905.495936, 181.291008, 1000.000000, 1000.000000, 1000.000000, 1000.000000, -1000.000000, -1000.000000, -824.610567, -1000.000000, -1000.000000,
							-255.611742, -1000.000000, -3.833340, -1000.000000, -1000.000000, -1000.000000, -1000.000000, -1000.000000, -760.038881, -1000.000000, -1000.000000, -1000.000000, -1000.000000, -1000.000000, -1000.000000, -1000.000000, -324.221929, -1000.000000, -1000.000000, -417.260126,
							-279.127935, -245.703169, -1000.000000, -1000.000000, -1000.000000, -1000.000000, -1000.000000, -1000.000000, -1000.000000, -1000.000000, -1000.000000, -1000.000000, -403.592501, -1000.000000, -1000.000000, -1000.000000, -1000.000000, -1000.000000, -1000.000000, -1000.000000,
							-1000.000000, -1000.000000, -934.661315, -1000.000000, -467.975312, -1000.000000, -1000.000000, -1000.000000, -1000.000000, -1000.000000, -28.363935, -405.217298, -1000.000000, -1000.000000, -31.818627, -341.174115, -1000.000000, -1000.000000, -334.931639, -1000.000000,
							-1000.000000, -1000.000000, -1000.000000, -1000.000000, -1000.000000, -1000.000000, -1000.000000, -1000.000000, -760.006689, -1000.000000, -1000.000000, -1000.000000, -1000.000000, -1000.000000, -1000.000000, -1000.000000, -1000.000000, -715.258078, -1000.000000, -1000.000000,
							-1000.000000, -1000.000000, -1000.000000, -1000.000000, -1000.000000, -446.728231, -1000.000000, -1000.000000, -1000.000000, -1000.000000, -1000.000000, -1000.000000, -1000.000000, -1000.000000, -1000.000000, -1000.000000, -1000.000000, -1000.000000, -1000.000000, -1000.000000,
							-1000.000000, -1000.000000, -1000.000000, -1000.000000, -1000.000000, -1000.000000, -1000.000000, -1000.000000, -1000.000000, -1000.000000, -1000.000000, -1000.000000, 1000.000000, 1000.000000, 429.004409, 231.918481, 744.751946, 328.283710, 517.160883, 819.381216,
							185.155776, 1000.000000, 188.843262, 1000.000000, 1000.000000, 146.122815, 1000.000000, 137.897066, 230.821148, 436.867918, 282.360207, 1000.000000, 88.527742, 576.734744, 173.892149, 1000.000000, 1000.000000, 1000.000000, 1000.000000, 237.812289,
							909.001905, 573.054107, 1000.000000, 722.340699, 1000.000000, 1000.000000, 479.901096, 106.067033, 1000.000000, 1000.000000, 424.303830, 1000.000000, 1000.000000, 1000.000000, 1000.000000, 766.484815, 671.881405, 1000.000000, 19.425409, 1000.000000,
							1000.000000, 1000.000000, 1000.000000, 693.052610, 1.034706, 1000.000000, 1000.000000, 1000.000000, 1000.000000, 1000.000000, 874.678100, 1000.000000, 232.731888, 1000.000000, 51.369857, 1000.000000, 125.023406, 1000.000000, 230.145994, 782.231216,
							1000.000000, 1000.000000, 1000.000000, 29.045470, 492.090225, 189.908144, 394.957273, 289.721256, 1000.000000, 777.279875, 1000.000000, 1000.000000, 1000.000000, 1000.000000, 1000.000000, 1000.000000, 418.954745, 1000.000000, 884.849600, 1000.000000,
							71.288830, 817.090196, 1000.000000, 348.855114, 957.060360, 1000.000000, 1000.000000, 1000.000000, 1000.000000, 904.829117, 1000.000000, 224.693882, 94.676867, 1000.000000, 106.532808, 88.767828, 310.831532, 1000.000000, 1000.000000, 779.550080,
							1000.000000, 672.696697, 1.559240, 1000.000000, 1000.000000, 211.282501, 566.880925, 188.800472, 893.969606, 459.519197, 564.105574, 1000.000000, 41.501889, 538.018411, 40.798260, 355.088273, 102.191027, 830.211998, 1000.000000, 1000.000000,
							29.502211, 1000.000000, 1000.000000, 1000.000000, 81.238323, 253.952351, 382.150696, 301.124786, 939.824951, 272.078804, 1000.000000, 549.383706, 516.236902, 1000.000000, 359.021056, 1000.000000, 499.953081, 262.048776, 1000.000000, 1000.000000,
							1000.000000, 1000.000000, 1000.000000, 1000.000000, 1000.000000, 756.981764, 1000.000000, 33.427743, 21.316003, 234.494583, 1000.000000, 1000.000000, 1000.000000, 1000.000000, 1000.000000, 1000.000000, 1000.000000, 22.804611, 1000.000000, 1000.000000,
							1000.000000, 325.669948, 84.067994, 1000.000000, 1000.000000, 1000.000000, 960.924097, 638.492648, 1000.000000, 430.342127, 1000.000000, 135.867804, 997.239955, 1000.000000, 211.535386, 1000.000000, 574.988899, 1000.000000, 658.973081, 685.787914,
							108.650195, 23.824590, 31.994957, 916.788447, 1000.000000, 1000.000000, 1000.000000, 936.412411, 24.341543, 891.219122, 1000.000000, 1000.000000, 1000.000000, 1000.000000, 1000.000000, 1000.000000, 757.270346, -1000.000000, -1000.000000, -1000.000000,
							-1000.000000, -1000.000000, -1000.000000, -1000.000000, -1000.000000, -267.235382, -262.728695, -1000.000000, -1000.000000, -1000.000000, -1000.000000, -1000.000000, -500.147992, -1000.000000, -1000.000000, -1000.000000, -325.236250, -1000.000000, -1000.000000, -1000.000000,
							-1000.000000, -1000.000000, -1000.000000, -1000.000000, -1000.000000, -1000.000000, -1000.000000, -1000.000000, -554.201465, -1000.000000, -1000.000000, -1000.000000, -1000.000000, -447.923319, -1000.000000, -1000.000000, -1000.000000, -1000.000000, -1000.000000, -1000.000000,
							-1000.000000, -1000.000000, -1000.000000, -1000.000000, -1000.000000, -1000.000000, -1000.000000, -1000.000000, -1000.000000, -1000.000000, -1000.000000, -1000.000000, -1000.000000, -1000.000000, -1000.000000, -1000.000000, -1000.000000, -1000.000000, -1000.000000, -1000.000000,
							-1000.000000, -1000.000000, -1000.000000, -1000.000000, -1000.000000, -1000.000000, -618.329816, -1000.000000, -1000.000000, -1000.000000, -1000.000000, -1000.000000, -1000.000000, -1000.000000, -1000.000000, -1000.000000, -1000.000000, -1000.000000, -1000.000000, -1000.000000,
							-1000.000000, -1000.000000, -1000.000000, -1000.000000, -1000.000000, -1000.000000, -1000.000000, -1000.000000, -1000.000000, -1000.000000, -1000.000000, -1000.000000, -1000.000000, -1000.000000, -1000.000000, -1000.000000, -1000.000000, -1000.000000, -1000.000000, -1000.000000,
							-1000.000000, -1000.000000, -1000.000000, -1000.000000, -1000.000000, -1000.000000, -1000.000000, -1000.000000, -1000.000000, -1000.000000, -1000.000000, -1000.000000, -1000.000000, -1000.000000, -1000.000000, -1000.000000, -1000.000000, -1000.000000, -1000.000000, -1000.000000,
							-1000.000000, -1000.000000, -1000.000000, -1000.000000, -1000.000000, -1000.000000, -1000.000000, -1000.000000, -1000.000000, -1000.000000, -1000.000000, -1000.000000, -1000.000000, -1000.000000, -1000.000000, -1000.000000, -1000.000000, -1000.000000, -1000.000000, -1000.000000,
							-1000.000000, -1000.000000, -1000.000000, -1000.000000, -1000.000000 };

const int support_vectors_count = 2986;
const int support_vectors_items_count = 19;
const double support_vectors[][19] = { { 0.799304, 0.325629, 0.000000, 0.000000, 0.000000, 0.392909, 0.392909, 0.217183, 0.834541, 0.000000, 0.000000, 0.326326, 0.111237, 0.000000, 0.000000, 0.000000, 0.000000, 0.000000, 0.000000 },
								{ 0.208979, 0.087275, 0.031554, 0.036030, 0.000560, 0.197560, 0.197560, 0.360283, 0.681986, 0.000000, 0.000000, 0.225792, 0.075682, 0.003477, 0.322040, 0.000541, 0.010487, 0.000073, 0.002289 },
								{ 0.181965, 0.095730, 0.002632, 0.002357, 0.000439, 0.655423, 0.655423, 0.283308, 0.764047, 0.000000, 0.000000, 0.355375, 0.122920, 0.003389, 0.006490, 0.002178, 0.005446, 0.000509, 0.003542 },
								{ 0.521129, 0.216129, 0.002625, 0.002867, 0.000536, 0.177367, 0.177367, 0.201209, 0.849488, 0.011303, 0.000000, 0.579485, 0.217538, 0.002263, 0.007546, 0.000143, 0.000568, 0.000008, 0.000109 },
								{ 0.771636, 0.479441, 0.000000, 0.000000, 0.000000, 0.120696, 0.120696, 0.289559, 0.757383, 0.000000, 0.000000, 0.383804, 0.133586, 0.000000, 0.000000, 0.000023, 0.000000, 0.000007, 0.000000 },
								{ 0.248702, 0.124624, 0.006267, 0.003256, 0.000255, 0.548183, 0.548183, 0.466817, 0.568413, 0.000000, 0.000000, 0.216584, 0.073650, 0.002810, 0.010258, 0.000211, 0.000000, 0.000085, 0.000000 },
								{ 0.723641, 0.403980, 0.000000, 0.000000, 0.000000, 0.847389, 0.847389, 0.241887, 0.801866, 0.034413, 0.000000, 0.361282, 0.149136, 0.000148, 0.000000, 0.000529, 0.000000, 0.000002, 0.000000 },
								{ 0.850004, 0.783527, 0.002896, 0.000000, 0.000000, 0.358200, 0.358200, 0.546296, 0.483682, 0.000000, 0.000000, 0.417057, 0.149332, 0.000722, 0.001111, 0.000059, 0.000000, 0.000001, 0.000000 },
								{ 0.530159, 0.502710, 0.001377, 0.000000, 0.000000, 0.108129, 0.108129, 0.296166, 0.750339, 0.000000, 0.000000, 0.648233, 0.232125, 0.004282, 0.004088, 0.000093, 0.000221, 0.000004, 0.000107 },
								{ 0.773947, 0.574027, 0.002502, 0.000000, 0.000000, 0.133525, 0.133525, 0.287374, 0.759713, 0.000000, 0.000000, 0.720847, 0.259046, 0.002430, 0.000000, 0.000155, 0.000429, 0.000006, 0.000879 },
								{ 0.362227, 0.139672, 0.020894, 0.007490, 0.000176, 0.245019, 0.245019, 0.240854, 0.809307, 0.000000, 0.000000, 0.358234, 0.123428, 0.013197, 0.000000, 0.000973, 0.003448, 0.000467, 0.011668 },
								{ 0.023903, 0.077572, 0.000000, 0.000000, 0.000000, 0.900393, 0.900393, 0.966586, 0.035622, 0.000000, 0.000000, 0.002541, 0.000508, 0.000000, 0.000000, 0.000000, 0.000000, 0.000000, 0.000000 },
								{ 0.649602, 0.404021, 0.000000, 0.000000, 0.000000, 0.967234, 0.967234, 0.253848, 0.793546, 0.010356, 0.000000, 0.588552, 0.221599, 0.000513, 0.000000, 0.001016, 0.000000, 0.000067, 0.000000 },
								{ 0.451349, 0.806187, 0.000000, 0.000000, 0.000000, 1.000000, 1.000000, 0.927327, 0.077475, 0.000000, 0.000000, 0.057128, 0.020317, 0.005848, 0.000000, 0.004001, 0.000000, 0.000686, 0.000000 },
								{ 0.989025, 0.203412, 0.000000, 0.000000, 0.000000, 1.000000, 1.000000, 1.000000, 0.000000, 0.000000, 0.000000, 0.000000, 0.000000, 0.000000, 0.000000, 0.000000, 0.000000, 0.000002, 0.000000 },
								{ 0.105370, 0.209343, 0.000000, 0.000000, 0.000000, 1.000000, 1.000000, 0.904785, 0.101506, 0.000000, 0.000000, 0.012902, 0.003556, 0.000000, 0.000000, 0.000019, 0.000000, 0.000000, 0.000000 },
								{ 0.587633, 0.269730, 0.002569, 0.002847, 0.000544, 0.596525, 0.596525, 0.210870, 0.839179, 0.011361, 0.000000, 0.569595, 0.213982, 0.001538, 0.004391, 0.000498, 0.007931, 0.000008, 0.001186 },
								{ 0.630418, 0.429522, 0.000597, 0.000000, 0.000000, 0.299418, 0.299418, 0.125000, 0.932815, 0.000000, 0.000000, 0.546484, 0.191999, 0.001329, 0.003132, 0.000488, 0.000000, 0.000029, 0.000000 },
								{ 0.710107, 0.708597, 0.000190, 0.004489, 0.011614, 0.016053, 0.016053, 0.421020, 0.617236, 0.000000, 0.000000, 0.553798, 0.198602, 0.001437, 0.003660, 0.000073, 0.000932, 0.000004, 0.001471 },
								{ 0.716344, 0.437068, 0.000238, 0.001293, 0.002666, 0.143856, 0.143856, 0.254422, 0.794842, 0.000000, 0.000000, 0.646974, 0.231110, 0.000263, 0.003343, 0.000124, 0.024746, 0.000006, 0.014890 },
								{ 0.817840, 0.539412, 0.000000, 0.000000, 0.000000, 0.325465, 0.325465, 0.269221, 0.779065, 0.000000, 0.000000, 0.606890, 0.216380, 0.000000, 0.000000, 0.000004, 0.000000, 0.000001, 0.000000 },
								{ 0.261112, 0.075568, 0.269313, 0.000000, 0.000000, 0.343296, 0.343296, 0.399824, 0.639833, 0.000000, 0.000000, 0.188930, 0.062476, 0.000000, 0.464989, 0.000045, 0.000000, 0.000001, 1.000000 },
								{ 0.637488, 0.486652, 0.000455, 0.000906, 0.000976, 0.043107, 0.043107, 0.257172, 0.791910, 0.000000, 0.000000, 0.716453, 0.257014, 0.001316, 0.000000, 0.000510, 0.000000, 0.000035, 0.000714 },
								{ 0.192799, 0.042678, 0.000000, 0.000000, 0.000000, 1.000000, 1.000000, 0.657208, 0.365442, 0.000000, 0.000000, 0.054359, 0.015746, 0.000000, 0.000000, 0.000008, 0.000000, 0.000024, 0.000000 },
								{ 0.442203, 0.193872, 0.006343, 0.007797, 0.000603, 0.544611, 0.544611, 0.282716, 0.764678, 0.000000, 0.000000, 0.369039, 0.127999, 0.017963, 0.006055, 0.000328, 0.012397, 0.000041, 0.014942 },
								{ 0.756094, 0.461761, 0.000000, 0.000000, 0.000000, 0.170908, 0.170908, 0.266923, 0.781515, 0.000000, 0.000000, 0.561952, 0.199618, 0.000314, 0.000522, 0.000026, 0.000687, 0.000001, 0.000000 },
								{ 0.725309, 0.372448, 0.000000, 0.000000, 0.000000, 0.435972, 0.435972, 0.201923, 0.824550, 0.142561, 0.000000, 0.215542, 0.131452, 0.000000, 0.000000, 0.000000, 0.000000, 0.000001, 0.000000 },
								{ 0.691695, 0.580778, 0.001323, 0.048691, 0.018059, 0.564264, 0.564264, 0.409371, 0.629655, 0.000000, 0.000000, 0.480540, 0.171173, 0.001599, 0.021117, 0.000079, 0.001196, 0.000002, 0.000241 },
								{ 0.674871, 0.541248, 0.001414, 0.006006, 0.002083, 0.149907, 0.149907, 0.273376, 0.774636, 0.000000, 0.000000, 0.747260, 0.268697, 0.021786, 0.000000, 0.000010, 0.000411, 0.000001, 0.000000 },
								{ 0.910571, 0.488861, 0.000886, 0.000000, 0.000000, 0.299137, 0.299137, 0.233866, 0.816756, 0.000000, 0.000000, 0.684532, 0.244824, 0.000963, 0.001566, 0.000013, 0.000632, 0.000003, 0.000185 },
								{ 0.653664, 0.312742, 0.000000, 0.000000, 0.000000, 0.655709, 0.655709, 0.295245, 0.751322, 0.000000, 0.000000, 0.168055, 0.053333, 0.000295, 0.001119, 0.000007, 0.000250, 0.000000, 0.000000 },
								{ 0.245239, 0.087926, 0.000108, 0.010951, 0.049552, 0.735918, 0.735918, 0.427555, 0.605464, 0.026087, 0.000000, 0.186713, 0.074335, 0.000348, 0.000000, 0.000238, 0.001688, 0.000017, 0.000000 },
								{ 0.392566, 0.239583, 0.000450, 0.001928, 0.002101, 0.359100, 0.359100, 0.275885, 0.742830, 0.158148, 0.000000, 0.261439, 0.186184, 0.008694, 0.002558, 0.000004, 0.004448, 0.000044, 0.000000 },
								{ 0.054937, 0.289801, 0.001613, 0.000000, 0.000000, 0.605150, 0.605150, 0.813692, 0.198618, 0.000000, 0.000000, 0.017473, 0.004063, 0.000000, 0.000000, 0.000023, 0.000000, 0.000197, 0.000000 },
								{ 0.972893, 0.474997, 0.000000, 0.000000, 0.000000, 0.280643, 0.280643, 0.222286, 0.829102, 0.000000, 0.000000, 0.431192, 0.150348, 0.000371, 0.000000, 0.000008, 0.000000, 0.000000, 0.000000 },
								{ 0.056416, 0.291604, 0.014960, 0.000000, 0.000000, 0.609754, 0.609754, 0.660422, 0.362016, 0.000000, 0.000000, 0.037875, 0.009651, 0.000000, 0.000000, 0.000269, 0.000000, 0.001105, 0.000000 },
								{ 0.508439, 0.721784, 0.010203, 0.000000, 0.000000, 0.517574, 0.517574, 0.459648, 0.576055, 0.000000, 0.000000, 0.466491, 0.166602, 0.000220, 0.047412, 0.000565, 0.000000, 0.000050, 0.000000 },
								{ 0.714055, 0.458762, 0.001212, 0.000000, 0.000000, 0.524819, 0.524819, 0.230638, 0.820198, 0.000000, 0.000000, 0.649176, 0.231618, 0.001568, 0.000000, 0.000037, 0.000000, 0.000013, 0.000000 },
								{ 0.663910, 0.773336, 0.010076, 0.000000, 0.000000, 0.406826, 0.406826, 0.605539, 0.420525, 0.000000, 0.000000, 0.369952, 0.132571, 0.002942, 0.000000, 0.000179, 0.000163, 0.000044, 0.000000 },
								{ 0.730406, 0.773341, 0.007600, 0.000000, 0.000000, 0.435748, 0.435748, 0.584380, 0.443082, 0.000000, 0.000000, 0.389796, 0.139682, 0.005779, 0.000000, 0.000053, 0.000000, 0.000019, 0.000000 },
								{ 0.308594, 0.445802, 0.028438, 0.009031, 0.000156, 0.401962, 0.401962, 0.460231, 0.575434, 0.000000, 0.000000, 0.385981, 0.136634, 0.007263, 0.000866, 0.000270, 0.002253, 0.000120, 0.009703 },
								{ 0.657426, 0.414974, 0.000435, 0.017835, 0.020118, 0.460817, 0.460817, 0.228828, 0.816470, 0.030711, 0.000000, 0.602152, 0.250830, 0.001588, 0.077976, 0.000219, 0.008947, 0.000005, 0.002327 },
								{ 0.644668, 0.267033, 0.000000, 0.000000, 0.000000, 1.000000, 1.000000, 1.000000, 0.000000, 0.000000, 0.000000, 0.000000, 0.000000, 0.000000, 0.000000, 0.000004, 0.000000, 0.000000, 0.000000 },
								{ 0.813157, 0.532218, 0.000000, 0.000000, 0.000000, 0.490560, 0.490560, 0.335284, 0.708637, 0.000000, 0.000000, 0.499519, 0.177269, 0.001538, 0.000000, 0.000122, 0.000000, 0.000006, 0.000000 },
								{ 0.399250, 0.269150, 0.000120, 0.003695, 0.015169, 0.688623, 0.688623, 0.330163, 0.714097, 0.000000, 0.000000, 0.481964, 0.170666, 0.001879, 0.000000, 0.001528, 0.000189, 0.000057, 0.000305 },
								{ 0.422248, 0.388001, 0.000253, 0.000485, 0.000942, 0.180828, 0.180828, 0.238078, 0.812266, 0.000000, 0.000000, 0.341961, 0.117333, 0.000000, 0.000000, 0.000249, 0.000000, 0.000023, 0.000000 },
								{ 0.816363, 0.604212, 0.000000, 0.000000, 0.000000, 0.036805, 0.036805, 0.372927, 0.668507, 0.000000, 0.000000, 0.566405, 0.202665, 0.000192, 0.000000, 0.000015, 0.000000, 0.000001, 0.000123 },
								{ 0.831504, 0.548850, 0.000078, 0.001122, 0.007041, 0.047069, 0.047069, 0.283636, 0.763697, 0.000000, 0.000000, 0.662316, 0.237205, 0.000589, 0.001359, 0.000030, 0.000243, 0.000000, 0.000000 },
								{ 0.716171, 0.631801, 0.001775, 0.000314, 0.000087, 0.044787, 0.044787, 0.361875, 0.680289, 0.000000, 0.000000, 0.619999, 0.222475, 0.001053, 0.000000, 0.000115, 0.001047, 0.000006, 0.000000 },
								{ 0.510747, 0.272408, 0.028192, 0.000000, 0.000000, 0.034258, 0.034258, 0.319098, 0.725893, 0.000000, 0.000000, 0.395043, 0.138158, 0.016537, 0.007092, 0.000391, 0.030126, 0.000169, 0.012497 },
								{ 0.866124, 0.551870, 0.000117, 0.000329, 0.001379, 0.358205, 0.358205, 0.310344, 0.735225, 0.000000, 0.000000, 0.632727, 0.226538, 0.000293, 0.000536, 0.000256, 0.000545, 0.000016, 0.001204 },
								{ 0.391094, 0.264890, 0.001930, 0.009607, 0.002442, 0.592662, 0.592662, 0.313314, 0.732058, 0.000000, 0.000000, 0.550769, 0.196062, 0.003198, 0.020568, 0.004510, 0.019367, 0.000750, 0.007212 },
								{ 0.486728, 0.236024, 0.003587, 0.017737, 0.002426, 0.483933, 0.483933, 0.253928, 0.777137, 0.098980, 0.000000, 0.449472, 0.255632, 0.006688, 0.021244, 0.000106, 0.004530, 0.000009, 0.008388 },
								{ 0.910301, 0.437569, 0.000000, 0.000000, 0.000000, 1.000000, 1.000000, 0.285010, 0.762233, 0.000000, 0.000000, 0.280283, 0.094984, 0.002944, 0.000000, 0.000266, 0.000000, 0.000004, 0.000000 },
								{ 0.311852, 0.257082, 0.002350, 0.003274, 0.000684, 0.809605, 0.809605, 0.575207, 0.452861, 0.000000, 0.000000, 0.193669, 0.066539, 0.000000, 0.011412, 0.000224, 0.008523, 0.000100, 0.000367 },
								{ 0.477414, 0.280556, 0.000000, 0.000307, 0.000000, 0.878611, 0.878611, 0.321308, 0.723536, 0.000000, 0.000000, 0.487733, 0.172697, 0.000759, 0.005381, 0.000186, 0.000000, 0.000057, 0.000000 },
								{ 0.405016, 0.509887, 0.000000, 0.000000, 0.000000, 0.919361, 0.919361, 0.546771, 0.483176, 0.000000, 0.000000, 0.423862, 0.151872, 0.000000, 0.000000, 0.000461, 0.000000, 0.000047, 0.000000 },
								{ 0.565009, 0.508302, 0.000000, 0.000000, 0.000000, 1.000000, 1.000000, 0.983905, 0.017158, 0.000000, 0.000000, 0.003295, 0.001016, 0.000336, 0.000000, 0.000013, 0.000000, 0.000000, 0.000000 },
								{ 0.783844, 0.404566, 0.000000, 0.000000, 0.000000, 0.837066, 0.837066, 0.183705, 0.861500, 0.047402, 0.000000, 0.416739, 0.181282, 0.000896, 0.000000, 0.000040, 0.000000, 0.000022, 0.000000 },
								{ 0.626716, 0.527581, 0.000382, 0.003712, 0.004767, 0.003368, 0.003368, 0.285986, 0.761192, 0.000000, 0.000000, 0.739995, 0.266157, 0.007105, 0.000823, 0.000168, 0.000000, 0.000009, 0.000332 },
								{ 0.632694, 0.449149, 0.000725, 0.000000, 0.000000, 0.739872, 0.739872, 0.203483, 0.849146, 0.000000, 0.000000, 0.978912, 0.354029, 0.021948, 0.000000, 0.000580, 0.000000, 0.000073, 0.000452 },
								{ 0.250353, 0.284809, 0.004134, 0.000985, 0.000117, 0.429442, 0.429442, 0.647762, 0.375512, 0.000000, 0.000000, 0.162466, 0.055873, 0.000000, 0.005707, 0.001786, 0.000237, 0.000278, 0.000000 },
								{ 0.565361, 0.483105, 0.000000, 0.000000, 0.000000, 1.000000, 1.000000, 0.993726, 0.006688, 0.000000, 0.000000, 0.001585, 0.000508, 0.000000, 0.000000, 0.000000, 0.000000, 0.000000, 0.000000 },
								{ 0.199893, 0.160132, 0.000000, 0.000000, 0.000000, 0.839867, 0.839867, 0.529478, 0.501611, 0.000000, 0.000000, 0.118882, 0.038095, 0.000000, 0.000000, 0.000183, 0.000000, 0.000128, 0.000000 },
								{ 0.951046, 0.479043, 0.000000, 0.000000, 0.000000, 0.535341, 0.535341, 0.170444, 0.884369, 0.000000, 0.000000, 0.437110, 0.151872, 0.000180, 0.000000, 0.000008, 0.000000, 0.000002, 0.000000 },
								{ 0.843386, 0.457146, 0.000381, 0.000000, 0.000000, 0.457803, 0.457803, 0.274014, 0.773955, 0.000000, 0.000000, 0.700854, 0.251427, 0.000487, 0.000719, 0.000020, 0.000321, 0.000000, 0.000000 },
								{ 0.786597, 0.699531, 0.000817, 0.002536, 0.001522, 0.165595, 0.165595, 0.437931, 0.599207, 0.000000, 0.000000, 0.662341, 0.239237, 0.001441, 0.001137, 0.000053, 0.002235, 0.000008, 0.000955 },
								{ 0.771517, 0.499256, 0.000000, 0.000000, 0.000000, 0.442917, 0.442917, 0.975984, 0.025603, 0.000000, 0.000000, 0.002210, 0.000508, 0.000000, 0.000000, 0.000000, 0.000000, 0.000000, 0.000000 },
								{ 0.410225, 0.433275, 0.000000, 0.002277, 0.000000, 0.479791, 0.479791, 0.295095, 0.751482, 0.000000, 0.000000, 0.584152, 0.208253, 0.026837, 0.001921, 0.000075, 0.000315, 0.000059, 0.003499 },
								{ 0.560068, 0.506307, 0.000249, 0.000000, 0.000000, 0.532766, 0.532766, 0.359568, 0.682749, 0.000000, 0.000000, 0.588703, 0.210792, 0.000283, 0.029895, 0.000000, 0.006325, 0.000001, 0.001814 },
								{ 0.726053, 0.728191, 0.000658, 0.000000, 0.000000, 0.075079, 0.075079, 0.542371, 0.487867, 0.000000, 0.000000, 0.392639, 0.140190, 0.000000, 0.000000, 0.000010, 0.000216, 0.000000, 0.000000 },
								{ 0.315581, 0.190250, 0.000090, 0.018211, 0.099149, 0.125275, 0.125275, 0.295955, 0.745067, 0.029852, 0.000000, 0.383963, 0.158269, 0.005227, 0.102148, 0.000331, 0.011546, 0.000054, 0.006754 },
								{ 0.587395, 0.459590, 0.000000, 0.000000, 0.000000, 0.297508, 0.297508, 0.289290, 0.757670, 0.000000, 0.000000, 0.310145, 0.106158, 0.000000, 0.000000, 0.000014, 0.000000, 0.000001, 0.000000 },
								{ 0.322407, 0.149588, 0.036610, 0.008493, 0.000114, 0.042656, 0.042656, 0.279850, 0.764869, 0.015552, 0.000000, 0.384334, 0.145929, 0.007996, 0.006047, 0.001110, 0.009174, 0.000045, 0.012663 },
								{ 0.146695, 0.123420, 0.064795, 0.041284, 0.000313, 0.107851, 0.107851, 0.410026, 0.628956, 0.000000, 0.000000, 0.176293, 0.057904, 0.000000, 0.000942, 0.041194, 0.000000, 0.000142, 0.000415 },
								{ 0.261961, 0.126463, 0.003459, 0.000546, 0.000077, 0.614590, 0.614590, 0.407983, 0.631134, 0.000000, 0.000000, 0.240483, 0.081777, 0.002694, 0.000000, 0.010855, 0.000000, 0.000099, 0.000000 },
								{ 0.172966, 0.112613, 0.000123, 0.000000, 0.000000, 0.135261, 0.135261, 0.376009, 0.626091, 0.212438, 0.000000, 0.153902, 0.147709, 0.004158, 0.014793, 0.000072, 0.002844, 0.000011, 0.003908 },
								{ 0.412212, 0.369441, 0.000455, 0.000000, 0.000000, 0.121787, 0.121787, 0.228190, 0.794737, 0.152391, 0.000000, 0.561453, 0.394840, 0.008149, 0.007716, 0.000032, 0.012729, 0.000019, 0.004173 },
								{ 0.966244, 0.428861, 0.000211, 0.002494, 0.005791, 0.546410, 0.546410, 0.184621, 0.869255, 0.000000, 0.000000, 0.622147, 0.220951, 0.000670, 0.000714, 0.000021, 0.000654, 0.000001, 0.000226 },
								{ 0.483952, 0.333586, 0.000040, 0.000000, 0.000000, 0.977315, 0.977315, 0.407511, 0.631638, 0.000000, 0.000000, 0.397387, 0.140190, 0.000298, 0.001345, 0.000640, 0.000000, 0.000188, 0.000104 },
								{ 0.326039, 0.322742, 0.000000, 0.000000, 0.000000, 0.856666, 0.856666, 0.543610, 0.486546, 0.000000, 0.000000, 0.253444, 0.088380, 0.000000, 0.001445, 0.002107, 0.000308, 0.000148, 0.000322 },
								{ 0.071204, 0.042677, 0.000000, 0.000000, 0.000000, 0.994071, 0.994071, 0.965844, 0.036413, 0.000000, 0.000000, 0.003931, 0.001016, 0.000000, 0.000000, 0.000000, 0.000000, 0.000000, 0.000000 },
								{ 0.366325, 0.087327, 0.000232, 0.001010, 0.002141, 0.858057, 0.858057, 0.273806, 0.774177, 0.000000, 0.000000, 0.247936, 0.082793, 0.000541, 0.003122, 0.005210, 0.001582, 0.000099, 0.000584 },
								{ 0.493436, 0.508103, 0.001131, 0.000000, 0.000000, 0.546051, 0.546051, 0.309423, 0.736207, 0.000000, 0.000000, 0.586376, 0.209268, 0.002447, 0.071887, 0.000342, 0.000670, 0.000056, 0.000308 },
								{ 0.985408, 0.932918, 0.000780, 0.000000, 0.000000, 0.748072, 0.748072, 0.895120, 0.111810, 0.000000, 0.000000, 0.043255, 0.014730, 0.000000, 0.000000, 0.000000, 0.000000, 0.000001, 0.000000 },
								{ 0.148845, 0.175510, 0.004233, 0.000531, 0.000062, 0.069102, 0.069102, 0.327546, 0.716886, 0.000000, 0.000000, 0.252865, 0.085333, 0.000275, 0.004787, 0.000109, 0.000198, 0.000001, 0.000000 },
								{ 0.594244, 0.456552, 0.000906, 0.000472, 0.000256, 0.104493, 0.104493, 0.267468, 0.780934, 0.000000, 0.000000, 0.650607, 0.232633, 0.026794, 0.000000, 0.000213, 0.000355, 0.000009, 0.000305 },
								{ 0.823213, 0.101100, 0.000000, 0.000000, 0.000000, 0.419054, 0.419054, 0.654783, 0.368027, 0.000000, 0.000000, 0.069451, 0.021333, 0.000844, 0.000000, 0.000000, 0.000000, 0.000011, 0.000000 },
								{ 0.484904, 0.485438, 0.000057, 0.000000, 0.000000, 0.485535, 0.485535, 0.298397, 0.747961, 0.000000, 0.000000, 0.496725, 0.175745, 0.000275, 0.000000, 0.000009, 0.000000, 0.000001, 0.000000 },
								{ 0.263395, 0.139083, 0.001511, 0.022278, 0.007233, 0.798791, 0.798791, 0.442141, 0.590560, 0.022578, 0.000000, 0.208049, 0.082454, 0.000000, 0.000000, 0.000367, 0.000000, 0.000032, 0.000965 },
								{ 0.460545, 0.359982, 0.034130, 0.005668, 0.000081, 0.273755, 0.273755, 0.260229, 0.788651, 0.000000, 0.000000, 0.552638, 0.196062, 0.013775, 0.000000, 0.002914, 0.000000, 0.000241, 0.012564 },
								{ 0.189716, 0.095716, 0.001658, 0.000000, 0.000000, 0.046328, 0.046328, 0.280122, 0.767444, 0.000000, 0.000000, 0.176773, 0.056381, 0.000000, 0.000000, 0.000000, 0.000000, 0.000030, 0.000000 },
								{ 0.739694, 0.505521, 0.000000, 0.000000, 0.000000, 0.642698, 0.642698, 0.289535, 0.757409, 0.000000, 0.000000, 0.375620, 0.130539, 0.000000, 0.000000, 0.000022, 0.000000, 0.000001, 0.000000 },
								{ 0.861517, 0.330841, 0.002936, 0.000000, 0.000000, 0.084081, 0.084081, 0.206639, 0.842365, 0.018552, 0.000000, 0.690036, 0.271003, 0.001150, 0.006748, 0.001494, 0.002976, 0.000032, 0.002305 },
								{ 0.031915, 0.088420, 0.000000, 0.000000, 0.000000, 1.000000, 1.000000, 0.925023, 0.079932, 0.000000, 0.000000, 0.005368, 0.001016, 0.000000, 0.000000, 0.000000, 0.000000, 0.000000, 0.000000 },
								{ 0.505114, 0.326319, 0.000000, 0.000000, 0.000000, 1.000000, 1.000000, 1.000000, 0.000000, 0.000000, 0.000000, 0.000000, 0.000000, 0.000628, 0.000000, 0.001536, 0.000000, 0.000053, 0.000000 },
								{ 0.668918, 0.464491, 0.000133, 0.002889, 0.010635, 0.550761, 0.550761, 0.247445, 0.802280, 0.000000, 0.000000, 0.476691, 0.167618, 0.003336, 0.000000, 0.000132, 0.002320, 0.000024, 0.000875 },
								{ 0.679890, 0.464385, 0.000000, 0.000000, 0.000000, 0.050886, 0.050886, 0.225615, 0.825552, 0.000000, 0.000000, 0.657538, 0.234665, 0.000984, 0.000000, 0.000045, 0.000000, 0.000003, 0.000000 },
								{ 0.487161, 0.210427, 0.004418, 0.002437, 0.000271, 0.058107, 0.058107, 0.245511, 0.804341, 0.000000, 0.000000, 0.356706, 0.122920, 0.000000, 0.024326, 0.000074, 0.005067, 0.000016, 0.002184 },
								{ 0.407963, 0.329940, 0.000142, 0.002863, 0.009887, 0.853490, 0.853490, 0.344267, 0.697196, 0.010120, 0.000000, 0.528072, 0.200265, 0.000253, 0.000000, 0.000178, 0.000716, 0.000017, 0.000585 },
								{ 0.603494, 0.656197, 0.000000, 0.000000, 0.000000, 0.332553, 0.332553, 0.249926, 0.799635, 0.000000, 0.000000, 0.276061, 0.092952, 0.000000, 0.000000, 0.000000, 0.000000, 0.000000, 0.000000 },
								{ 0.818500, 0.101101, 0.000000, 0.000000, 0.000000, 1.000000, 1.000000, 0.978352, 0.023079, 0.000000, 0.000000, 0.002126, 0.000508, 0.000000, 0.000000, 0.000000, 0.000000, 1.000000, 0.000000 },
								{ 0.235026, 0.223983, 0.001253, 0.000000, 0.000000, 0.772366, 0.772366, 0.611364, 0.414315, 0.000000, 0.000000, 0.165112, 0.056381, 0.000182, 0.002325, 0.000405, 0.002316, 0.000344, 0.000000 },
								{ 0.898595, 0.566533, 0.000000, 0.000000, 0.000000, 0.103886, 0.103886, 0.247120, 0.802626, 0.000000, 0.000000, 0.486252, 0.171173, 0.000000, 0.000000, 0.000004, 0.000000, 0.000000, 0.000000 },
								{ 0.496955, 0.421337, 0.000517, 0.001075, 0.001021, 0.235042, 0.235042, 0.291087, 0.755754, 0.000000, 0.000000, 0.633405, 0.226538, 0.000941, 0.003125, 0.000279, 0.002111, 0.000157, 0.000818 },
								{ 0.175918, 0.096337, 0.005384, 0.003705, 0.000338, 0.671916, 0.671916, 0.601074, 0.425285, 0.000000, 0.000000, 0.106812, 0.034539, 0.021034, 0.000000, 0.002564, 0.000000, 0.000067, 0.000000 },
								{ 0.893148, 0.574823, 0.000129, 0.000000, 0.000000, 0.084185, 0.084185, 0.317883, 0.727188, 0.000000, 0.000000, 0.535601, 0.190475, 0.000391, 0.000000, 0.000022, 0.000000, 0.000009, 0.001707 },
								{ 0.904736, 0.494706, 0.000063, 0.000000, 0.000000, 0.521536, 0.521536, 0.345686, 0.697548, 0.000000, 0.000000, 0.542808, 0.193523, 0.001685, 0.000000, 0.000064, 0.000000, 0.000000, 0.000000 },
								{ 0.660321, 0.472000, 0.000112, 0.001874, 0.008206, 0.010083, 0.010083, 0.271930, 0.776177, 0.000000, 0.000000, 0.627258, 0.223999, 0.001826, 0.000634, 0.000070, 0.000000, 0.000008, 0.000000 },
								{ 0.432443, 0.134212, 0.034558, 0.002937, 0.000042, 0.016481, 0.016481, 0.348974, 0.694042, 0.000000, 0.000000, 0.253475, 0.085841, 0.036362, 0.015961, 0.000439, 0.007007, 0.000048, 0.006075 },
								{ 0.796402, 0.489703, 0.000820, 0.000483, 0.000289, 0.310494, 0.310494, 0.234415, 0.816171, 0.000000, 0.000000, 0.739082, 0.265141, 0.006631, 0.001952, 0.000092, 0.000485, 0.000001, 0.000120 },
								{ 0.396440, 0.288387, 0.000000, 0.000000, 0.000000, 0.853344, 0.853344, 0.483614, 0.550506, 0.000000, 0.000000, 0.308761, 0.108190, 0.000000, 0.000000, 0.000675, 0.003481, 0.000021, 0.003782 },
								{ 0.767867, 0.527579, 0.000088, 0.000000, 0.000000, 0.134300, 0.134300, 0.247053, 0.802697, 0.000000, 0.000000, 0.587207, 0.208761, 0.000728, 0.000000, 0.000012, 0.000000, 0.000002, 0.000000 },
								{ 0.702965, 0.424443, 0.000375, 0.006503, 0.008504, 0.069904, 0.069904, 0.219097, 0.832502, 0.000000, 0.000000, 0.844667, 0.304252, 0.002109, 0.003777, 0.000173, 0.001114, 0.000015, 0.002029 },
								{ 0.989828, 0.065068, 0.000000, 0.000000, 0.000000, 1.000000, 1.000000, 1.000000, 0.000000, 0.000000, 0.000000, 0.000000, 0.000000, 0.000000, 0.000000, 0.000007, 0.000000, 0.000000, 0.000000 },
								{ 0.594098, 0.607518, 0.000000, 0.000000, 0.000000, 1.000000, 1.000000, 0.548563, 0.481266, 0.000000, 0.000000, 0.073191, 0.021333, 0.000000, 0.000000, 0.000000, 0.000000, 0.000000, 0.000000 },
								{ 0.936772, 0.466001, 0.000029, 0.000000, 0.000000, 0.119255, 0.119255, 0.237274, 0.813123, 0.000000, 0.000000, 0.565724, 0.200634, 0.000260, 0.001277, 0.000024, 0.000000, 0.000005, 0.000361 },
								{ 0.168909, 0.148116, 0.000000, 0.000000, 0.000000, 0.932105, 0.932105, 0.766103, 0.249352, 0.000000, 0.000000, 0.046433, 0.014222, 0.000000, 0.000000, 0.002041, 0.000000, 0.000065, 0.000000 },
								{ 0.586036, 0.495074, 0.002228, 0.019910, 0.004384, 0.267870, 0.267870, 0.351357, 0.691502, 0.000000, 0.000000, 0.561707, 0.200634, 0.002366, 0.102964, 0.000423, 0.012402, 0.000192, 0.014096 },
								{ 0.483116, 0.374470, 0.000711, 0.002519, 0.001739, 0.823364, 0.823364, 0.591064, 0.435957, 0.000000, 0.000000, 0.212210, 0.073650, 0.000205, 0.000000, 0.036626, 0.000355, 0.000979, 0.002980 },
								{ 0.958191, 0.466605, 0.000069, 0.000000, 0.000000, 0.221356, 0.221356, 0.233447, 0.817203, 0.000000, 0.000000, 0.559037, 0.198094, 0.000992, 0.000000, 0.000039, 0.000000, 0.000005, 0.000000 },
								{ 0.265986, 0.249899, 0.000000, 0.000000, 0.000000, 0.358510, 0.358510, 0.449673, 0.581521, 0.028063, 0.000000, 0.315807, 0.134899, 0.001826, 0.002308, 0.000149, 0.000000, 0.000028, 0.000000 },
								{ 0.784163, 0.647400, 0.000000, 0.000000, 0.000000, 0.047387, 0.047387, 0.289010, 0.757969, 0.000000, 0.000000, 0.353811, 0.122412, 0.000000, 0.000000, 0.000014, 0.000000, 0.000000, 0.000000 },
								{ 0.094873, 0.327098, 0.000097, 0.000000, 0.000000, 0.856944, 0.856944, 0.901472, 0.105038, 0.000000, 0.000000, 0.010290, 0.002540, 0.000000, 0.000000, 0.000077, 0.000000, 0.000001, 0.000000 },
								{ 0.390558, 0.361226, 0.000000, 0.000000, 0.000000, 0.795127, 0.795127, 0.599404, 0.427065, 0.000000, 0.000000, 0.206460, 0.071619, 0.007080, 0.000000, 0.000137, 0.001460, 0.000016, 0.000285 },
								{ 0.458409, 0.134212, 0.000000, 0.000000, 0.000000, 0.201404, 0.201404, 0.346759, 0.690551, 0.031771, 0.000000, 0.178609, 0.070285, 0.000620, 0.000531, 0.000034, 0.000000, 0.000001, 0.000489 },
								{ 0.396373, 0.200490, 0.003059, 0.006222, 0.000998, 0.299111, 0.299111, 0.258831, 0.784310, 0.031658, 0.000000, 0.382530, 0.157257, 0.019853, 0.075506, 0.000480, 0.005134, 0.000016, 0.002232 },
								{ 0.742931, 0.413184, 0.001461, 0.006000, 0.002016, 0.347911, 0.347911, 0.212172, 0.834943, 0.026822, 0.000000, 0.703715, 0.288408, 0.002233, 0.027068, 0.000227, 0.000630, 0.000064, 0.002282 },
								{ 0.822877, 0.671099, 0.000000, 0.000000, 0.000000, 0.192678, 0.192678, 0.318908, 0.726095, 0.000000, 0.000000, 0.581949, 0.207745, 0.000966, 0.000000, 0.000016, 0.000000, 0.000000, 0.000000 },
								{ 0.472663, 0.273354, 0.000391, 0.004710, 0.005915, 0.411693, 0.411693, 0.313285, 0.725205, 0.037377, 0.000000, 0.439523, 0.191417, 0.008857, 0.011426, 0.000054, 0.000409, 0.000039, 0.001059 },
								{ 0.595788, 0.498056, 0.000000, 0.000000, 0.000000, 1.000000, 1.000000, 1.000000, 0.000000, 0.000000, 0.000000, 0.000000, 0.000000, 0.000000, 0.000000, 0.000000, 0.000000, 0.000000, 0.000000 },
								{ 0.447137, 0.157739, 0.001637, 0.000000, 0.000000, 0.015845, 0.015845, 0.368047, 0.673709, 0.000000, 0.000000, 0.183227, 0.059936, 0.000000, 0.000000, 0.000020, 0.003357, 0.000001, 0.000812 },
								{ 0.124704, 0.186543, 0.000000, 0.000000, 0.000000, 1.000000, 1.000000, 0.877736, 0.130343, 0.000000, 0.000000, 0.013854, 0.003556, 0.000000, 0.000000, 0.000000, 0.000000, 0.000000, 0.000000 },
								{ 0.249278, 0.062608, 0.001273, 0.011002, 0.004241, 0.308661, 0.308661, 0.352033, 0.690781, 0.000000, 0.000000, 0.140136, 0.043682, 0.000000, 0.000000, 0.000013, 0.000000, 0.000002, 0.000000 },
								{ 0.316998, 0.412985, 0.000110, 0.010592, 0.047156, 0.752683, 0.752683, 0.407816, 0.631312, 0.000000, 0.000000, 0.449217, 0.159491, 0.000893, 0.000000, 0.001309, 0.000832, 0.000280, 0.000175 },
								{ 0.075152, 0.199889, 0.000000, 0.000000, 0.000000, 0.854303, 0.854303, 0.651394, 0.371640, 0.000000, 0.000000, 0.132325, 0.044698, 0.000000, 0.001510, 0.000471, 0.000000, 0.000021, 0.000000 },
								{ 0.449041, 0.750170, 0.000000, 0.000000, 0.000000, 1.000000, 1.000000, 0.813315, 0.199020, 0.000000, 0.000000, 0.129353, 0.045714, 0.000683, 0.000000, 0.000545, 0.000000, 0.000807, 0.000000 },
								{ 0.008143, 0.087218, 0.000000, 0.000000, 0.000000, 1.000000, 1.000000, 0.905896, 0.100322, 0.000000, 0.000000, 0.007406, 0.001524, 0.000000, 0.000000, 0.000000, 0.000000, 0.000014, 0.000000 },
								{ 0.567821, 0.516523, 0.000000, 0.000000, 0.000000, 0.444361, 0.444361, 0.370997, 0.670564, 0.000000, 0.000000, 0.385030, 0.135110, 0.000469, 0.000000, 0.000077, 0.000000, 0.000001, 0.000000 },
								{ 0.126356, 0.291605, 0.000072, 0.000000, 0.000000, 0.566504, 0.566504, 0.763533, 0.252092, 0.000000, 0.000000, 0.021967, 0.005079, 0.000000, 0.000000, 0.000028, 0.000000, 0.000311, 0.000000 },
								{ 0.107832, 0.440243, 0.000000, 0.000000, 0.000000, 1.000000, 1.000000, 0.874013, 0.134311, 0.000000, 0.000000, 0.011257, 0.002540, 0.000000, 0.000000, 0.000069, 0.000000, 0.000000, 0.000000 },
								{ 0.254768, 0.149866, 0.000092, 0.000000, 0.000000, 0.175582, 0.175582, 0.267647, 0.777530, 0.017443, 0.000000, 0.350646, 0.133235, 0.002893, 0.012110, 0.000254, 0.000000, 0.000024, 0.000171 },
								{ 0.576543, 0.353184, 0.002079, 0.003516, 0.000830, 0.381466, 0.381466, 0.205091, 0.830381, 0.092569, 0.000000, 0.640060, 0.350323, 0.018815, 0.001777, 0.000833, 0.000199, 0.000069, 0.000000 },
								{ 0.310279, 0.244406, 0.001228, 0.000782, 0.000313, 0.623259, 0.623259, 0.302622, 0.737048, 0.034795, 0.000000, 0.479477, 0.206141, 0.002061, 0.019930, 0.000911, 0.005252, 0.000072, 0.006622 },
								{ 0.625024, 0.419913, 0.000334, 0.000000, 0.000000, 0.275290, 0.275290, 0.243877, 0.806084, 0.000000, 0.000000, 0.609147, 0.216887, 0.003127, 0.000000, 0.000261, 0.000000, 0.000011, 0.000000 },
								{ 0.738902, 0.566126, 0.000000, 0.000000, 0.000000, 0.417172, 0.417172, 0.331153, 0.713041, 0.000000, 0.000000, 0.371426, 0.129523, 0.000635, 0.000000, 0.000000, 0.000547, 0.000002, 0.000409 },
								{ 0.868148, 0.428861, 0.000108, 0.009298, 0.042285, 0.501202, 0.501202, 0.148070, 0.908221, 0.000000, 0.000000, 0.747579, 0.267173, 0.000278, 0.033984, 0.000032, 0.000201, 0.000007, 0.000611 },
								{ 0.518685, 0.428364, 0.012223, 0.018849, 0.000757, 0.130771, 0.130771, 0.431594, 0.605963, 0.000000, 0.000000, 0.384261, 0.135618, 0.000000, 0.000000, 0.000089, 0.000791, 0.000000, 0.001995 },
								{ 0.834981, 0.457145, 0.000342, 0.000742, 0.001063, 0.524262, 0.524262, 0.328650, 0.715709, 0.000000, 0.000000, 0.438362, 0.154412, 0.003161, 0.009183, 0.000031, 0.000288, 0.000010, 0.000166 },
								{ 0.667070, 0.614068, 0.000033, 0.000000, 0.000000, 0.035533, 0.035533, 0.330009, 0.714260, 0.000000, 0.000000, 0.626578, 0.224506, 0.000203, 0.000000, 0.000037, 0.000000, 0.000001, 0.000000 },
								{ 0.202522, 0.164528, 0.000050, 0.000000, 0.000000, 0.090046, 0.090046, 0.312378, 0.696096, 0.200658, 0.000000, 0.146099, 0.119514, 0.000962, 0.000000, 0.000099, 0.000270, 0.000046, 0.000000 },
								{ 0.777287, 0.642860, 0.000000, 0.000000, 0.000000, 0.706026, 0.706026, 0.256387, 0.792747, 0.000000, 0.000000, 0.311304, 0.106158, 0.000000, 0.000000, 0.000000, 0.000000, 0.000000, 0.000000 },
								{ 0.883767, 0.602043, 0.000000, 0.000000, 0.000000, 0.001606, 0.001606, 0.330764, 0.713456, 0.000000, 0.000000, 0.147706, 0.046222, 0.000000, 0.000000, 0.000000, 0.000000, 0.000000, 0.000333 },
								{ 0.435606, 0.458431, 0.004507, 0.001385, 0.000151, 0.477113, 0.477113, 0.290491, 0.756389, 0.000000, 0.000000, 0.722101, 0.259554, 0.005203, 0.019542, 0.000854, 0.004654, 0.000016, 0.005087 },
								{ 0.638222, 0.465755, 0.000000, 0.000000, 0.000000, 0.580606, 0.580606, 0.305249, 0.740657, 0.000000, 0.000000, 0.377795, 0.131555, 0.000000, 0.000000, 0.000049, 0.000000, 0.000000, 0.000000 },
								{ 0.233676, 0.113205, 0.000000, 0.000000, 0.000000, 0.993610, 0.993610, 0.398950, 0.640765, 0.000000, 0.000000, 0.199874, 0.066539, 0.003247, 0.000000, 0.004480, 0.000000, 0.000027, 0.000315 },
								{ 0.702979, 0.505314, 0.000000, 0.000000, 0.000000, 0.768362, 0.768362, 0.341567, 0.701939, 0.000000, 0.000000, 0.455642, 0.161015, 0.000000, 0.000000, 0.000110, 0.000000, 0.000001, 0.000000 },
								{ 0.267299, 0.232432, 0.000434, 0.010227, 0.011567, 0.363214, 0.363214, 0.401574, 0.637967, 0.000000, 0.000000, 0.349848, 0.122412, 0.001393, 0.000677, 0.000250, 0.003402, 0.000019, 0.003794 },
								{ 0.830046, 0.741320, 0.000238, 0.000000, 0.000000, 0.284782, 0.284782, 0.503102, 0.529731, 0.000000, 0.000000, 0.280790, 0.098031, 0.000000, 0.000000, 0.000004, 0.000000, 0.000001, 0.000000 },
								{ 0.823788, 0.537002, 0.015683, 0.006064, 0.000190, 0.009959, 0.009959, 0.349548, 0.693431, 0.000000, 0.000000, 0.635440, 0.228062, 0.007752, 0.024284, 0.000992, 0.000000, 0.000062, 0.000140 },
								{ 0.620873, 0.362033, 0.001393, 0.000450, 0.000158, 0.229789, 0.229789, 0.126249, 0.897489, 0.184561, 0.000000, 0.646466, 0.474107, 0.007231, 0.000486, 0.000291, 0.010078, 0.000012, 0.001806 },
								{ 0.849728, 0.592156, 0.000000, 0.000000, 0.000000, 0.759850, 0.759850, 0.272248, 0.775838, 0.000000, 0.000000, 0.354401, 0.122412, 0.000000, 0.000000, 0.000021, 0.000000, 0.000002, 0.000000 },
								{ 0.762827, 0.844619, 0.001286, 0.000000, 0.000000, 0.172996, 0.172996, 0.670851, 0.350898, 0.000000, 0.000000, 0.308990, 0.110729, 0.004637, 0.000000, 0.000291, 0.000000, 0.000039, 0.000000 },
								{ 0.341264, 0.083080, 0.015785, 0.007741, 0.000241, 0.154413, 0.154413, 0.319444, 0.725523, 0.000000, 0.000000, 0.224501, 0.074666, 0.003422, 0.011470, 0.000142, 0.022391, 0.000017, 0.020299 },
								{ 0.833511, 0.452342, 0.000506, 0.000000, 0.000000, 0.009060, 0.009060, 0.246397, 0.803398, 0.000000, 0.000000, 0.681362, 0.243808, 0.002942, 0.000829, 0.000443, 0.000340, 0.000039, 0.000485 },
								{ 0.742661, 0.484040, 0.102571, 0.013199, 0.000063, 0.147088, 0.147088, 0.365851, 0.676050, 0.000000, 0.000000, 0.469794, 0.166602, 0.011748, 0.000000, 0.000671, 0.000000, 0.000184, 0.000397 },
								{ 0.329171, 0.301644, 0.001569, 0.059626, 0.018644, 0.681941, 0.681941, 0.467518, 0.567665, 0.000000, 0.000000, 0.343433, 0.120888, 0.001686, 0.005122, 0.000994, 0.001463, 0.000134, 0.000916 },
								{ 0.533093, 0.329490, 0.000934, 0.002540, 0.001334, 0.175039, 0.175039, 0.199630, 0.807980, 0.245793, 0.000000, 0.525153, 0.503389, 0.042460, 0.006987, 0.000504, 0.002416, 0.000059, 0.006692 },
								{ 0.114854, 0.308217, 0.000181, 0.000878, 0.002379, 0.477217, 0.477217, 0.643889, 0.379641, 0.000000, 0.000000, 0.198073, 0.069079, 0.000000, 0.001013, 0.002186, 0.000270, 0.000417, 0.000000 },
								{ 0.539299, 0.347080, 0.002630, 0.006390, 0.001192, 0.107011, 0.107011, 0.237717, 0.812651, 0.000000, 0.000000, 0.693946, 0.248379, 0.000407, 0.002952, 0.000118, 0.007445, 0.000041, 0.002296 },
								{ 0.311959, 0.236613, 0.000243, 0.002691, 0.005429, 0.553697, 0.553697, 0.427749, 0.610062, 0.000000, 0.000000, 0.350290, 0.122920, 0.001780, 0.045286, 0.000535, 0.011734, 0.000123, 0.001065 },
								{ 0.544469, 0.422658, 0.000436, 0.000000, 0.000000, 0.660567, 0.660567, 0.402996, 0.636451, 0.000000, 0.000000, 0.514870, 0.183872, 0.000000, 0.011157, 0.000191, 0.002259, 0.000045, 0.002975 },
								{ 0.116073, 0.419202, 0.000000, 0.000000, 0.000000, 1.000000, 1.000000, 0.773224, 0.241760, 0.000000, 0.000000, 0.020262, 0.004571, 0.000000, 0.000000, 0.000005, 0.000000, 0.000000, 0.000000 },
								{ 0.761953, 0.783226, 0.004772, 0.000000, 0.000000, 0.333097, 0.333097, 0.589597, 0.437520, 0.000000, 0.000000, 0.298209, 0.105650, 0.000283, 0.000000, 0.000004, 0.000000, 0.000005, 0.000000 },
								{ 0.691347, 0.090311, 0.000272, 0.000000, 0.000000, 0.650451, 0.650451, 0.575292, 0.452770, 0.000000, 0.000000, 0.100899, 0.032000, 0.000000, 0.000000, 0.000024, 0.000000, 0.000003, 0.000000 },
								{ 0.630220, 0.630320, 0.000219, 0.000000, 0.000000, 0.353015, 0.353015, 0.360225, 0.682048, 0.000000, 0.000000, 0.686905, 0.247363, 0.000000, 0.000871, 0.000053, 0.000446, 0.000004, 0.000000 },
								{ 0.842413, 0.565515, 0.000327, 0.001491, 0.002237, 0.168288, 0.168288, 0.305413, 0.740481, 0.000000, 0.000000, 0.787059, 0.283935, 0.000000, 0.003329, 0.000028, 0.001667, 0.000006, 0.001014 },
								{ 0.544435, 0.252574, 0.006782, 0.005057, 0.000366, 0.146129, 0.146129, 0.321966, 0.712545, 0.055861, 0.000000, 0.380726, 0.181926, 0.000000, 0.002483, 0.000034, 0.002541, 0.000007, 0.004116 },
								{ 0.664389, 0.439471, 0.004156, 0.000000, 0.000000, 0.134876, 0.134876, 0.236147, 0.814324, 0.000000, 0.000000, 0.808597, 0.291046, 0.001387, 0.001149, 0.000519, 0.000000, 0.000014, 0.000000 },
								{ 0.296192, 0.149866, 0.002012, 0.000000, 0.000000, 0.026609, 0.026609, 0.278594, 0.769073, 0.000000, 0.000000, 0.359634, 0.124444, 0.011149, 0.005495, 0.000909, 0.000000, 0.000035, 0.000388 },
								{ 0.018846, 0.132961, 0.000000, 0.000000, 0.000000, 1.000000, 1.000000, 0.871087, 0.137431, 0.000000, 0.000000, 0.022273, 0.006603, 0.003725, 0.000000, 0.001581, 0.000000, 0.000233, 0.000000 },
								{ 0.647771, 0.293979, 0.001672, 0.003379, 0.000991, 0.543056, 0.543056, 0.223847, 0.794882, 0.176738, 0.000000, 0.363878, 0.272531, 0.005347, 0.011726, 0.000113, 0.000591, 0.000001, 0.000000 },
								{ 0.518703, 0.393440, 0.003277, 0.000869, 0.000130, 0.273320, 0.273320, 0.268535, 0.779796, 0.000000, 0.000000, 0.752887, 0.270728, 0.002604, 0.000000, 0.000124, 0.000000, 0.000054, 0.000000 },
								{ 0.861757, 0.522939, 0.000000, 0.000000, 0.000000, 0.567003, 0.567003, 0.227140, 0.823927, 0.000000, 0.000000, 0.391459, 0.135618, 0.000646, 0.000000, 0.000013, 0.000000, 0.000003, 0.000000 },
								{ 0.496109, 0.240275, 0.000000, 0.000000, 0.000000, 1.000000, 1.000000, 0.995695, 0.004590, 0.000000, 0.000000, 0.001516, 0.000508, 0.000000, 0.000000, 0.000067, 0.000000, 0.000151, 0.000000 },
								{ 0.796745, 0.457753, 0.002339, 0.007836, 0.001644, 0.336174, 0.336174, 0.243732, 0.806238, 0.000000, 0.000000, 0.658264, 0.235173, 0.000313, 0.001511, 0.000151, 0.000000, 0.000018, 0.000217 },
								{ 0.752246, 0.658638, 0.000000, 0.000000, 0.000000, 0.299493, 0.299493, 0.358393, 0.684001, 0.000000, 0.000000, 0.270878, 0.092444, 0.000000, 0.000000, 0.000009, 0.000000, 0.000004, 0.000000 },
								{ 0.375422, 0.183597, 0.003804, 0.006979, 0.000900, 0.621858, 0.621858, 0.253509, 0.795815, 0.000000, 0.000000, 0.442371, 0.154920, 0.016625, 0.001600, 0.003076, 0.000000, 0.000084, 0.000000 },
								{ 0.608397, 0.375404, 0.000087, 0.000426, 0.002399, 0.545082, 0.545082, 0.247237, 0.793170, 0.050660, 0.000000, 0.580120, 0.267362, 0.002246, 0.000000, 0.000110, 0.003607, 0.000010, 0.001216 },
								{ 0.177094, 0.227581, 0.000157, 0.004195, 0.013069, 0.757548, 0.757548, 0.423611, 0.614474, 0.000000, 0.000000, 0.343615, 0.120380, 0.003369, 0.000954, 0.000175, 0.002636, 0.000016, 0.001463 },
								{ 0.394403, 0.306453, 0.007643, 0.000642, 0.000041, 0.251442, 0.251442, 0.456237, 0.579692, 0.000000, 0.000000, 0.326096, 0.114285, 0.000441, 0.026003, 0.001134, 0.000000, 0.000027, 0.018679 },
								{ 0.402876, 0.321472, 0.037154, 0.002132, 0.000028, 0.267304, 0.267304, 0.269090, 0.779205, 0.000000, 0.000000, 0.635544, 0.227046, 0.020688, 0.004512, 0.000411, 0.001688, 0.000060, 0.000729 },
								{ 0.872382, 0.158872, 0.000000, 0.000000, 0.000000, 0.398175, 0.398175, 0.533589, 0.497229, 0.000000, 0.000000, 0.076446, 0.022349, 0.000000, 0.000000, 0.000005, 0.000000, 0.000000, 0.000000 },
								{ 0.883397, 0.742725, 0.000281, 0.000000, 0.000000, 0.041775, 0.041775, 0.467471, 0.567716, 0.000000, 0.000000, 0.486680, 0.174221, 0.001648, 0.000000, 0.000012, 0.000000, 0.000000, 0.000000 },
								{ 0.990288, 0.417810, 0.026528, 0.000000, 0.000000, 0.030815, 0.030815, 0.243852, 0.806110, 0.000000, 0.000000, 0.693730, 0.248379, 0.031428, 0.001461, 0.000134, 0.001543, 0.000012, 0.000137 },
								{ 0.948780, 0.498881, 0.000000, 0.000000, 0.000000, 0.541192, 0.541192, 0.304674, 0.741270, 0.000000, 0.000000, 0.231842, 0.077206, 0.000000, 0.000000, 0.000005, 0.000000, 0.000001, 0.000153 },
								{ 0.487512, 0.257376, 0.000461, 0.001396, 0.001486, 0.220479, 0.220479, 0.224611, 0.824530, 0.011361, 0.000000, 0.559562, 0.210427, 0.002129, 0.000000, 0.000143, 0.002572, 0.000007, 0.001924 },
								{ 0.567077, 0.485042, 0.000037, 0.000000, 0.000000, 0.173073, 0.173073, 0.288109, 0.758929, 0.000000, 0.000000, 0.325193, 0.111745, 0.000000, 0.000000, 0.000008, 0.000000, 0.000001, 0.000000 },
								{ 0.250216, 0.116764, 0.000284, 0.001491, 0.002576, 0.853545, 0.853545, 0.408323, 0.630772, 0.000000, 0.000000, 0.265028, 0.090920, 0.011739, 0.009538, 0.002540, 0.000000, 0.001090, 0.000000 },
								{ 0.723366, 0.934776, 0.000039, 0.000000, 0.000000, 0.616094, 0.616094, 0.809437, 0.203154, 0.000000, 0.000000, 0.110390, 0.038603, 0.027956, 0.000000, 0.000000, 0.000000, 0.000000, 0.000000 },
								{ 0.758271, 0.565102, 0.000405, 0.000000, 0.000000, 0.084300, 0.084300, 0.265678, 0.782842, 0.000000, 0.000000, 0.582459, 0.207237, 0.000146, 0.000000, 0.000043, 0.000000, 0.000001, 0.000000 },
								{ 0.670128, 0.555951, 0.002710, 0.000000, 0.000000, 0.436230, 0.436230, 0.359353, 0.682978, 0.000000, 0.000000, 0.360884, 0.125967, 0.000433, 0.000000, 0.000302, 0.000000, 0.000001, 0.000000 },
								{ 0.805193, 0.350908, 0.000095, 0.000000, 0.000000, 0.071247, 0.071247, 0.214128, 0.837799, 0.000000, 0.000000, 0.460128, 0.161015, 0.002249, 0.000000, 0.000043, 0.000000, 0.000013, 0.000239 },
								{ 0.755644, 0.566203, 0.046436, 0.000474, 0.000005, 0.141969, 0.141969, 0.398061, 0.641712, 0.000000, 0.000000, 0.531414, 0.189967, 0.063400, 0.036463, 0.002063, 0.001774, 0.000101, 0.000000 },
								{ 0.911799, 0.671294, 0.000065, 0.001562, 0.011860, 0.097964, 0.097964, 0.372919, 0.668515, 0.000000, 0.000000, 0.705557, 0.254475, 0.000613, 0.001796, 0.000019, 0.000870, 0.000001, 0.000162 },
								{ 0.908921, 0.541839, 0.000683, 0.001357, 0.000975, 0.179175, 0.179175, 0.302338, 0.743760, 0.000000, 0.000000, 0.548427, 0.195046, 0.000177, 0.004510, 0.000000, 0.000454, 0.000001, 0.000271 },
								{ 0.493789, 0.180011, 0.001003, 0.001033, 0.000505, 0.710920, 0.710920, 0.265554, 0.777593, 0.029215, 0.000000, 0.409593, 0.167410, 0.001394, 0.000424, 0.000752, 0.000000, 0.000632, 0.000685 },
								{ 0.655638, 0.567119, 0.000078, 0.000000, 0.000000, 0.295209, 0.295209, 0.237405, 0.812984, 0.000000, 0.000000, 0.729427, 0.261586, 0.000242, 0.000000, 0.000022, 0.000000, 0.000003, 0.000000 },
								{ 0.235160, 0.147517, 0.001258, 0.001491, 0.000581, 0.129094, 0.129094, 0.301692, 0.744449, 0.000000, 0.000000, 0.275603, 0.093460, 0.000000, 0.035996, 0.000098, 0.000000, 0.000004, 0.000613 },
								{ 0.367446, 0.328654, 0.000911, 0.000000, 0.000000, 0.919369, 0.919369, 0.236622, 0.811078, 0.014876, 0.000000, 0.425423, 0.160657, 0.013776, 0.001060, 0.002150, 0.000367, 0.000122, 0.000161 },
								{ 0.967990, 0.651201, 0.000000, 0.000000, 0.000000, 0.182103, 0.182103, 0.350325, 0.692603, 0.000000, 0.000000, 0.638141, 0.229078, 0.000797, 0.000000, 0.000013, 0.000000, 0.000001, 0.000000 },
								{ 0.451405, 0.140215, 0.000000, 0.000000, 0.000000, 0.258711, 0.258711, 0.332121, 0.712009, 0.000000, 0.000000, 0.123102, 0.037079, 0.000000, 0.000000, 0.000010, 0.000000, 0.000001, 0.000000 },
								{ 0.334968, 0.167974, 0.001316, 0.006325, 0.002358, 0.675473, 0.675473, 0.381436, 0.659435, 0.000000, 0.000000, 0.336914, 0.117333, 0.002256, 0.002639, 0.003014, 0.000213, 0.000557, 0.000267 },
								{ 0.331084, 0.208301, 0.000063, 0.004571, 0.035820, 0.471623, 0.471623, 0.317609, 0.727480, 0.000000, 0.000000, 0.445572, 0.156951, 0.003475, 0.042428, 0.000423, 0.005459, 0.000177, 0.001783 },
								{ 0.698035, 0.657420, 0.000150, 0.000000, 0.000000, 0.116275, 0.116275, 0.286507, 0.760637, 0.000000, 0.000000, 0.555805, 0.197586, 0.000361, 0.000000, 0.000222, 0.000000, 0.000005, 0.000000 },
								{ 0.226010, 0.150507, 0.000194, 0.004471, 0.011294, 0.818738, 0.818738, 0.341707, 0.701789, 0.000000, 0.000000, 0.316485, 0.109206, 0.000655, 0.008774, 0.000128, 0.000512, 0.000044, 0.000000 },
								{ 0.246386, 0.257696, 0.002865, 0.000279, 0.000048, 0.537279, 0.537279, 0.391680, 0.646207, 0.012529, 0.000000, 0.398151, 0.152525, 0.000388, 0.009774, 0.004632, 0.000000, 0.000221, 0.001884 },
								{ 0.618991, 0.524955, 0.000055, 0.000000, 0.000000, 0.141336, 0.141336, 0.278414, 0.769265, 0.000000, 0.000000, 0.361005, 0.124952, 0.000232, 0.000000, 0.000009, 0.000373, 0.000003, 0.000292 },
								{ 0.532769, 0.449741, 0.000000, 0.000000, 0.000000, 1.000000, 1.000000, 0.986634, 0.014249, 0.000000, 0.000000, 0.003199, 0.001016, 0.000000, 0.000000, 0.000184, 0.000000, 0.000026, 0.000000 },
								{ 0.569740, 0.591193, 0.000108, 0.001211, 0.005520, 0.011026, 0.011026, 0.346238, 0.696960, 0.000000, 0.000000, 0.535967, 0.190983, 0.000238, 0.007584, 0.000035, 0.000000, 0.000003, 0.000000 },
								{ 0.804653, 0.750128, 0.000620, 0.000000, 0.000000, 0.387222, 0.387222, 0.484193, 0.549889, 0.000000, 0.000000, 0.424700, 0.151364, 0.000575, 0.006421, 0.000000, 0.001357, 0.000002, 0.000848 },
								{ 0.576569, 0.087219, 0.000000, 0.000000, 0.000000, 1.000000, 1.000000, 0.718571, 0.300025, 0.000000, 0.000000, 0.027643, 0.006603, 0.000000, 0.000000, 0.000012, 0.000000, 0.000085, 0.000000 },
								{ 0.663722, 0.421337, 0.001133, 0.000625, 0.000271, 0.191929, 0.191929, 0.242750, 0.807285, 0.000000, 0.000000, 0.714232, 0.255998, 0.000468, 0.002186, 0.000088, 0.000000, 0.000001, 0.000334 },
								{ 0.199491, 0.203410, 0.000276, 0.000000, 0.000000, 0.025239, 0.025239, 0.375579, 0.665680, 0.000000, 0.000000, 0.163863, 0.052825, 0.000248, 0.000000, 0.000027, 0.000328, 0.000012, 0.000000 },
								{ 0.390885, 0.201703, 0.000145, 0.000661, 0.002241, 0.897812, 0.897812, 0.325951, 0.715865, 0.014777, 0.000000, 0.377259, 0.143895, 0.003145, 0.003604, 0.000695, 0.005042, 0.000012, 0.000830 },
								{ 0.046485, 0.428225, 0.000000, 0.000000, 0.000000, 1.000000, 1.000000, 0.851254, 0.158574, 0.000000, 0.000000, 0.013422, 0.003048, 0.000000, 0.000000, 0.000012, 0.000000, 0.000000, 0.000000 },
								{ 0.748041, 0.598001, 0.000000, 0.000000, 0.000000, 0.972069, 0.972069, 0.447357, 0.589158, 0.000000, 0.000000, 0.150422, 0.048762, 0.000000, 0.001217, 0.000000, 0.000000, 0.000000, 0.000000 },
								{ 0.157980, 0.451716, 0.000000, 0.000000, 0.000000, 0.000000, 0.000000, 0.846296, 0.163860, 0.000000, 0.000000, 0.010868, 0.002032, 0.000000, 0.000000, 0.000000, 0.000000, 0.000000, 0.000000 },
								{ 0.371212, 0.474159, 0.000000, 0.039744, 0.000000, 0.929597, 0.929597, 0.438608, 0.598486, 0.000000, 0.000000, 0.358094, 0.125967, 0.007216, 0.000000, 0.001747, 0.000772, 0.000209, 0.000477 },
								{ 0.202071, 0.190285, 0.000492, 0.008625, 0.008609, 0.549605, 0.549605, 0.424701, 0.607117, 0.033633, 0.000000, 0.277090, 0.120182, 0.000162, 0.009877, 0.001056, 0.008806, 0.000037, 0.000217 },
								{ 0.383523, 0.482235, 0.009637, 0.004181, 0.000213, 0.211347, 0.211347, 0.476167, 0.558445, 0.000000, 0.000000, 0.433168, 0.154412, 0.009198, 0.012554, 0.001678, 0.000848, 0.000105, 0.000581 },
								{ 0.473918, 0.501519, 0.000449, 0.005101, 0.005574, 0.362084, 0.362084, 0.580642, 0.447067, 0.000000, 0.000000, 0.328537, 0.116825, 0.000000, 0.010585, 0.000262, 0.001870, 0.000006, 0.000210 },
								{ 0.544335, 0.234770, 0.002375, 0.011917, 0.002462, 0.176243, 0.176243, 0.230442, 0.820407, 0.000000, 0.000000, 0.531858, 0.187935, 0.016550, 0.001763, 0.000432, 0.010882, 0.000018, 0.028522 },
								{ 0.944362, 0.898974, 0.000000, 0.000000, 0.000000, 0.774834, 0.774834, 0.739445, 0.277771, 0.000000, 0.000000, 0.157874, 0.055365, 0.000964, 0.000000, 0.000109, 0.000000, 0.000008, 0.000000 },
								{ 0.803881, 0.744500, 0.000030, 0.000000, 0.000000, 0.493787, 0.493787, 0.431586, 0.605972, 0.000000, 0.000000, 0.421095, 0.149332, 0.000000, 0.000000, 0.000027, 0.000000, 0.000003, 0.000000 },
								{ 0.729485, 0.326295, 0.006459, 0.000000, 0.000000, 0.223547, 0.223547, 0.221381, 0.818319, 0.063769, 0.000000, 0.566227, 0.274111, 0.000598, 0.000000, 0.000072, 0.000000, 0.000002, 0.000000 },
								{ 0.715053, 0.622496, 0.000000, 0.000000, 0.000000, 0.014142, 0.014142, 0.327160, 0.717297, 0.000000, 0.000000, 0.618493, 0.221459, 0.000614, 0.000000, 0.000005, 0.000000, 0.000002, 0.000000 },
								{ 0.694605, 0.287474, 0.009438, 0.005688, 0.000296, 0.279354, 0.279354, 0.215393, 0.836449, 0.000000, 0.000000, 0.460084, 0.161015, 0.000429, 0.050145, 0.000185, 0.001545, 0.000010, 0.000118 },
								{ 0.751184, 0.488859, 0.003583, 0.000000, 0.000000, 0.253124, 0.253124, 0.207866, 0.844474, 0.000000, 0.000000, 0.828692, 0.298157, 0.002074, 0.000515, 0.000086, 0.000000, 0.000011, 0.000000 },
								{ 0.282857, 0.112620, 0.002599, 0.023969, 0.004526, 0.464340, 0.464340, 0.351231, 0.691636, 0.000000, 0.000000, 0.314786, 0.108698, 0.113178, 0.001487, 0.000436, 0.005645, 0.000329, 0.004781 },
								{ 0.394298, 0.167967, 0.000716, 0.001138, 0.000779, 0.726888, 0.726888, 0.257358, 0.788954, 0.014976, 0.000000, 0.411050, 0.155578, 0.002517, 0.007679, 0.000616, 0.007527, 0.000070, 0.008606 },
								{ 0.377092, 0.242057, 0.000000, 0.000000, 0.000000, 0.840103, 0.840103, 0.434412, 0.602959, 0.000000, 0.000000, 0.314586, 0.109714, 0.000000, 0.000000, 0.000566, 0.000435, 0.000095, 0.000000 },
								{ 0.308653, 0.497527, 0.013257, 0.003409, 0.000126, 0.178545, 0.178545, 0.267275, 0.781139, 0.000000, 0.000000, 0.500549, 0.176761, 0.022470, 0.026553, 0.000028, 0.002380, 0.000308, 0.001151 },
								{ 0.363081, 0.140275, 0.002061, 0.000000, 0.000000, 0.381296, 0.381296, 0.333333, 0.710717, 0.000000, 0.000000, 0.170807, 0.054857, 0.000000, 0.000000, 0.000000, 0.000000, 0.000000, 0.000000 },
								{ 0.427005, 0.574387, 0.000245, 0.003656, 0.007335, 0.690373, 0.690373, 0.592904, 0.433995, 0.000000, 0.000000, 0.294000, 0.104126, 0.002671, 0.001267, 0.001448, 0.005999, 0.000148, 0.001072 },
								{ 0.682209, 0.473977, 0.000000, 0.000000, 0.000000, 1.000000, 1.000000, 0.698082, 0.321867, 0.000000, 0.000000, 0.025636, 0.005587, 0.000000, 0.000000, 0.000000, 0.000000, 0.000000, 0.000000 },
								{ 0.955683, 0.575139, 0.000173, 0.000000, 0.000000, 0.320118, 0.320118, 0.291995, 0.754787, 0.000000, 0.000000, 0.503771, 0.178285, 0.001584, 0.000000, 0.000024, 0.000000, 0.000001, 0.000000 },
								{ 0.408868, 0.171291, 0.001125, 0.000370, 0.000161, 0.139792, 0.139792, 0.367102, 0.664006, 0.058143, 0.000000, 0.260152, 0.125435, 0.016161, 0.000552, 0.000110, 0.003020, 0.000067, 0.008234 },
								{ 0.750756, 0.510934, 0.000454, 0.000344, 0.000372, 0.236348, 0.236348, 0.219234, 0.832355, 0.000000, 0.000000, 0.723246, 0.259046, 0.000441, 0.006332, 0.000043, 0.000000, 0.000008, 0.000000 },
								{ 0.752202, 0.494272, 0.000031, 0.000000, 0.000000, 0.376092, 0.376092, 0.262488, 0.786243, 0.000000, 0.000000, 0.480254, 0.169142, 0.000000, 0.000000, 0.000058, 0.000000, 0.000003, 0.000000 },
								{ 0.612233, 0.535794, 0.000686, 0.000000, 0.000000, 0.104205, 0.104205, 0.229673, 0.821226, 0.000000, 0.000000, 0.608283, 0.216380, 0.000195, 0.001106, 0.000148, 0.001888, 0.000033, 0.000000 },
								{ 0.691761, 0.719437, 0.000000, 0.000000, 0.000000, 0.908951, 0.908951, 0.360800, 0.681436, 0.000000, 0.000000, 0.258515, 0.087872, 0.000000, 0.000000, 0.000004, 0.000000, 0.000001, 0.000000 },
								{ 0.587891, 0.456676, 0.000210, 0.002113, 0.004932, 0.701042, 0.701042, 0.224299, 0.826955, 0.000000, 0.000000, 0.763994, 0.274284, 0.001805, 0.000564, 0.000770, 0.000645, 0.000043, 0.000957 },
								{ 0.393428, 0.271497, 0.000000, 0.003807, 0.000000, 0.750874, 0.750874, 0.338376, 0.702941, 0.013025, 0.000000, 0.417759, 0.159129, 0.003491, 0.001028, 0.000566, 0.000000, 0.000006, 0.000166 },
								{ 0.208038, 0.106567, 0.017684, 0.000000, 0.000000, 0.203724, 0.203724, 0.371472, 0.670058, 0.000000, 0.000000, 0.172193, 0.055873, 0.000000, 0.000000, 0.000160, 0.000000, 0.000013, 0.000584 },
								{ 0.187457, 0.164059, 0.002199, 0.007973, 0.001779, 0.633975, 0.633975, 0.308521, 0.737168, 0.000000, 0.000000, 0.275362, 0.093460, 0.014144, 0.008293, 0.035326, 0.002624, 0.003180, 0.001965 },
								{ 0.584953, 0.215005, 0.000000, 0.000000, 0.000000, 0.748611, 0.748611, 0.319165, 0.720323, 0.029852, 0.000000, 0.370868, 0.153697, 0.005078, 0.000000, 0.000210, 0.000000, 0.000017, 0.000000 },
								{ 0.583866, 0.313388, 0.006916, 0.000327, 0.000023, 0.182575, 0.182575, 0.233990, 0.814841, 0.009680, 0.000000, 0.645189, 0.242422, 0.003177, 0.050750, 0.000430, 0.002561, 0.000031, 0.002171 },
								{ 0.087927, 0.060227, 0.000000, 0.000979, 0.000000, 0.985091, 0.985091, 0.834623, 0.176305, 0.000000, 0.000000, 0.029014, 0.008635, 0.000000, 0.000000, 0.001374, 0.000000, 0.000085, 0.000000 },
								{ 0.638597, 0.446116, 0.002387, 0.029357, 0.006034, 0.625749, 0.625749, 0.325203, 0.719384, 0.000000, 0.000000, 0.539436, 0.191999, 0.008564, 0.001328, 0.000026, 0.000743, 0.000166, 0.000289 },
								{ 0.435747, 0.288383, 0.025459, 0.009256, 0.000178, 0.117790, 0.117790, 0.268668, 0.779655, 0.000000, 0.000000, 0.508685, 0.179808, 0.001547, 0.000946, 0.000483, 0.003828, 0.000013, 0.010790 },
								{ 0.782239, 0.421338, 0.000147, 0.000396, 0.001322, 0.433537, 0.433537, 0.186179, 0.867594, 0.000000, 0.000000, 0.714860, 0.255490, 0.000675, 0.000824, 0.000031, 0.002825, 0.000003, 0.003359 },
								{ 0.809166, 0.815984, 0.000709, 0.000000, 0.000000, 0.382521, 0.382521, 0.655163, 0.367622, 0.000000, 0.000000, 0.283622, 0.101079, 0.002058, 0.000000, 0.000049, 0.000000, 0.000002, 0.000000 },
								{ 0.597519, 0.470377, 0.000373, 0.012081, 0.015885, 0.133512, 0.133512, 0.215797, 0.836019, 0.000000, 0.000000, 0.743830, 0.266665, 0.001531, 0.013551, 0.000043, 0.000000, 0.000018, 0.001402 },
								{ 0.368797, 0.116794, 0.010550, 0.009284, 0.000432, 0.531402, 0.531402, 0.254676, 0.784680, 0.053697, 0.000000, 0.335077, 0.151837, 0.039859, 0.003428, 0.001057, 0.270550, 0.000602, 0.058027 },
								{ 0.579166, 0.483106, 0.000000, 0.000000, 0.000000, 1.000000, 1.000000, 1.000000, 0.000000, 0.000000, 0.000000, 0.000000, 0.000000, 0.000000, 0.000000, 0.000005, 0.000000, 0.000001, 0.000000 },
								{ 0.811875, 0.416325, 0.000000, 0.000000, 0.000000, 0.435154, 0.435154, 0.182127, 0.871914, 0.000000, 0.000000, 0.266170, 0.088380, 0.000000, 0.000000, 0.000006, 0.000000, 0.000000, 0.000000 },
								{ 0.736151, 0.656226, 0.002323, 0.000627, 0.000132, 0.280641, 0.280641, 0.305556, 0.740330, 0.000000, 0.000000, 0.536035, 0.190475, 0.004073, 0.001359, 0.000031, 0.000000, 0.000010, 0.000000 },
								{ 0.767400, 0.569519, 0.000000, 0.000000, 0.000000, 0.225369, 0.225369, 0.265293, 0.783253, 0.000000, 0.000000, 0.574287, 0.204189, 0.000206, 0.000000, 0.000042, 0.000000, 0.000004, 0.000000 },
								{ 0.333266, 0.159534, 0.007959, 0.029741, 0.001833, 0.756768, 0.756768, 0.426119, 0.611800, 0.000000, 0.000000, 0.215289, 0.072634, 0.000000, 0.000000, 0.025226, 0.000000, 0.000357, 0.000000 },
								{ 0.184117, 0.069851, 0.001562, 0.006087, 0.001912, 0.828557, 0.828557, 0.295381, 0.740130, 0.059972, 0.000000, 0.283129, 0.133058, 0.002085, 0.003816, 0.001093, 0.000000, 0.001158, 0.000696 },
								{ 0.348529, 0.107184, 0.000000, 0.023323, 0.000000, 0.703975, 0.703975, 0.382665, 0.653648, 0.024306, 0.000000, 0.215589, 0.084490, 0.007652, 0.010269, 0.000100, 0.000000, 0.000008, 0.000000 },
								{ 0.876269, 0.770921, 0.000370, 0.000000, 0.000000, 0.326791, 0.326791, 0.629574, 0.394902, 0.000000, 0.000000, 0.341821, 0.122412, 0.001202, 0.000000, 0.000119, 0.000000, 0.000002, 0.000000 },
								{ 0.634305, 0.377677, 0.000000, 0.001182, 0.000000, 0.320352, 0.320352, 0.267319, 0.772602, 0.046092, 0.000000, 0.382426, 0.169597, 0.000000, 0.000000, 0.000019, 0.000000, 0.000003, 0.000000 },
								{ 0.527515, 0.283852, 0.005160, 0.000000, 0.000000, 0.081970, 0.081970, 0.228468, 0.822511, 0.000000, 0.000000, 0.376405, 0.130031, 0.000660, 0.002850, 0.000019, 0.000000, 0.000010, 0.000000 },
								{ 0.848766, 0.726950, 0.000000, 0.000000, 0.000000, 0.667182, 0.667182, 0.382839, 0.657940, 0.000000, 0.000000, 0.380520, 0.133586, 0.000000, 0.000000, 0.000008, 0.000000, 0.000001, 0.000000 },
								{ 0.519207, 0.486424, 0.029790, 0.039416, 0.000649, 0.170387, 0.170387, 0.380288, 0.660660, 0.000000, 0.000000, 0.470650, 0.167110, 0.006527, 0.016852, 0.000553, 0.011631, 0.000070, 0.003807 },
								{ 0.505188, 0.286960, 0.000678, 0.000911, 0.000659, 0.623392, 0.623392, 0.201589, 0.805935, 0.245556, 0.000000, 0.447558, 0.425720, 0.072822, 0.003799, 0.005308, 0.000432, 0.000031, 0.000766 },
								{ 0.062560, 0.325629, 0.000000, 0.000000, 0.000000, 1.000000, 1.000000, 0.871914, 0.136550, 0.000000, 0.000000, 0.008602, 0.001524, 0.000000, 0.000000, 0.000000, 0.000000, 0.000000, 0.000000 },
								{ 0.753480, 0.732697, 0.000083, 0.004216, 0.024951, 0.321748, 0.321748, 0.452484, 0.583693, 0.000000, 0.000000, 0.543141, 0.195046, 0.000687, 0.002707, 0.000061, 0.000000, 0.000039, 0.000000 },
								{ 0.161664, 0.428047, 0.000166, 0.000000, 0.000000, 0.845782, 0.845782, 0.494112, 0.539314, 0.000000, 0.000000, 0.338405, 0.119364, 0.006230, 0.057119, 0.001573, 0.001332, 0.000155, 0.000000 },
								{ 0.823060, 0.557511, 0.000000, 0.000432, 0.000000, 0.230549, 0.230549, 0.338346, 0.705372, 0.000000, 0.000000, 0.420285, 0.147809, 0.000000, 0.000000, 0.000072, 0.000000, 0.000002, 0.000000 },
								{ 0.676435, 0.322666, 0.000132, 0.002408, 0.008939, 0.020704, 0.020704, 0.191328, 0.834231, 0.151326, 0.000000, 0.526722, 0.357019, 0.010232, 0.010202, 0.000289, 0.005093, 0.000050, 0.001180 },
								{ 0.235588, 0.287179, 0.001624, 0.005489, 0.001658, 0.431634, 0.431634, 0.424290, 0.613750, 0.000000, 0.000000, 0.309485, 0.107682, 0.001155, 0.000000, 0.000828, 0.004336, 0.000404, 0.004122 },
								{ 0.803178, 0.544868, 0.000000, 0.000000, 0.000000, 0.394415, 0.394415, 0.280494, 0.767047, 0.000000, 0.000000, 0.526004, 0.186411, 0.000509, 0.000000, 0.000044, 0.000000, 0.000003, 0.000000 },
								{ 0.855760, 0.787281, 0.000866, 0.000000, 0.000000, 0.658296, 0.658296, 0.598757, 0.427755, 0.000000, 0.000000, 0.271966, 0.095999, 0.000000, 0.000000, 0.000034, 0.000000, 0.000000, 0.000000 },
								{ 0.866742, 0.291122, 0.000000, 0.000000, 0.000000, 1.000000, 1.000000, 0.608206, 0.417681, 0.000000, 0.000000, 0.049263, 0.013206, 0.000000, 0.000000, 0.000011, 0.000000, 0.000000, 0.000000 },
